{"learner":{"attributes":{"scikit_learn":"{\"_estimator_type\": \"classifier\"}"},"feature_names":[],"feature_types":[],"gradient_booster":{"model":{"gbtree_model_param":{"num_parallel_tree":"1","num_trees":"2880"},"iteration_indptr":[0,4,8,12,16,20,24,28,32,36,40,44,48,52,56,60,64,68,72,76,80,84,88,92,96,100,104,108,112,116,120,124,128,132,136,140,144,148,152,156,160,164,168,172,176,180,184,188,192,196,200,204,208,212,216,220,224,228,232,236,240,244,248,252,256,260,264,268,272,276,280,284,288,292,296,300,304,308,312,316,320,324,328,332,336,340,344,348,352,356,360,364,368,372,376,380,384,388,392,396,400,404,408,412,416,420,424,428,432,436,440,444,448,452,456,460,464,468,472,476,480,484,488,492,496,500,504,508,512,516,520,524,528,532,536,540,544,548,552,556,560,564,568,572,576,580,584,588,592,596,600,604,608,612,616,620,624,628,632,636,640,644,648,652,656,660,664,668,672,676,680,684,688,692,696,700,704,708,712,716,720,724,728,732,736,740,744,748,752,756,760,764,768,772,776,780,784,788,792,796,800,804,808,812,816,820,824,828,832,836,840,844,848,852,856,860,864,868,872,876,880,884,888,892,896,900,904,908,912,916,920,924,928,932,936,940,944,948,952,956,960,964,968,972,976,980,984,988,992,996,1000,1004,1008,1012,1016,1020,1024,1028,1032,1036,1040,1044,1048,1052,1056,1060,1064,1068,1072,1076,1080,1084,1088,1092,1096,1100,1104,1108,1112,1116,1120,1124,1128,1132,1136,1140,1144,1148,1152,1156,1160,1164,1168,1172,1176,1180,1184,1188,1192,1196,1200,1204,1208,1212,1216,1220,1224,1228,1232,1236,1240,1244,1248,1252,1256,1260,1264,1268,1272,1276,1280,1284,1288,1292,1296,1300,1304,1308,1312,1316,1320,1324,1328,1332,1336,1340,1344,1348,1352,1356,1360,1364,1368,1372,1376,1380,1384,1388,1392,1396,1400,1404,1408,1412,1416,1420,1424,1428,1432,1436,1440,1444,1448,1452,1456,1460,1464,1468,1472,1476,1480,1484,1488,1492,1496,1500,1504,1508,1512,1516,1520,1524,1528,1532,1536,1540,1544,1548,1552,1556,1560,1564,1568,1572,1576,1580,1584,1588,1592,1596,1600,1604,1608,1612,1616,1620,1624,1628,1632,1636,1640,1644,1648,1652,1656,1660,1664,1668,1672,1676,1680,1684,1688,1692,1696,1700,1704,1708,1712,1716,1720,1724,1728,1732,1736,1740,1744,1748,1752,1756,1760,1764,1768,1772,1776,1780,1784,1788,1792,1796,1800,1804,1808,1812,1816,1820,1824,1828,1832,1836,1840,1844,1848,1852,1856,1860,1864,1868,1872,1876,1880,1884,1888,1892,1896,1900,1904,1908,1912,1916,1920,1924,1928,1932,1936,1940,1944,1948,1952,1956,1960,1964,1968,1972,1976,1980,1984,1988,1992,1996,2000,2004,2008,2012,2016,2020,2024,2028,2032,2036,2040,2044,2048,2052,2056,2060,2064,2068,2072,2076,2080,2084,2088,2092,2096,2100,2104,2108,2112,2116,2120,2124,2128,2132,2136,2140,2144,2148,2152,2156,2160,2164,2168,2172,2176,2180,2184,2188,2192,2196,2200,2204,2208,2212,2216,2220,2224,2228,2232,2236,2240,2244,2248,2252,2256,2260,2264,2268,2272,2276,2280,2284,2288,2292,2296,2300,2304,2308,2312,2316,2320,2324,2328,2332,2336,2340,2344,2348,2352,2356,2360,2364,2368,2372,2376,2380,2384,2388,2392,2396,2400,2404,2408,2412,2416,2420,2424,2428,2432,2436,2440,2444,2448,2452,2456,2460,2464,2468,2472,2476,2480,2484,2488,2492,2496,2500,2504,2508,2512,2516,2520,2524,2528,2532,2536,2540,2544,2548,2552,2556,2560,2564,2568,2572,2576,2580,2584,2588,2592,2596,2600,2604,2608,2612,2616,2620,2624,2628,2632,2636,2640,2644,2648,2652,2656,2660,2664,2668,2672,2676,2680,2684,2688,2692,2696,2700,2704,2708,2712,2716,2720,2724,2728,2732,2736,2740,2744,2748,2752,2756,2760,2764,2768,2772,2776,2780,2784,2788,2792,2796,2800,2804,2808,2812,2816,2820,2824,2828,2832,2836,2840,2844,2848,2852,2856,2860,2864,2868,2872,2876,2880],"tree_info":[0,1,2,3,0,1,2,3,0,1,2,3,0,1,2,3,0,1,2,3,0,1,2,3,0,1,2,3,0,1,2,3,0,1,2,3,0,1,2,3,0,1,2,3,0,1,2,3,0,1,2,3,0,1,2,3,0,1,2,3,0,1,2,3,0,1,2,3,0,1,2,3,0,1,2,3,0,1,2,3,0,1,2,3,0,1,2,3,0,1,2,3,0,1,2,3,0,1,2,3,0,1,2,3,0,1,2,3,0,1,2,3,0,1,2,3,0,1,2,3,0,1,2,3,0,1,2,3,0,1,2,3,0,1,2,3,0,1,2,3,0,1,2,3,0,1,2,3,0,1,2,3,0,1,2,3,0,1,2,3,0,1,2,3,0,1,2,3,0,1,2,3,0,1,2,3,0,1,2,3,0,1,2,3,0,1,2,3,0,1,2,3,0,1,2,3,0,1,2,3,0,1,2,3,0,1,2,3,0,1,2,3,0,1,2,3,0,1,2,3,0,1,2,3,0,1,2,3,0,1,2,3,0,1,2,3,0,1,2,3,0,1,2,3,0,1,2,3,0,1,2,3,0,1,2,3,0,1,2,3,0,1,2,3,0,1,2,3,0,1,2,3,0,1,2,3,0,1,2,3,0,1,2,3,0,1,2,3,0,1,2,3,0,1,2,3,0,1,2,3,0,1,2,3,0,1,2,3,0,1,2,3,0,1,2,3,0,1,2,3,0,1,2,3,0,1,2,3,0,1,2,3,0,1,2,3,0,1,2,3,0,1,2,3,0,1,2,3,0,1,2,3,0,1,2,3,0,1,2,3,0,1,2,3,0,1,2,3,0,1,2,3,0,1,2,3,0,1,2,3,0,1,2,3,0,1,2,3,0,1,2,3,0,1,2,3,0,1,2,3,0,1,2,3,0,1,2,3,0,1,2,3,0,1,2,3,0,1,2,3,0,1,2,3,0,1,2,3,0,1,2,3,0,1,2,3,0,1,2,3,0,1,2,3,0,1,2,3,0,1,2,3,0,1,2,3,0,1,2,3,0,1,2,3,0,1,2,3,0,1,2,3,0,1,2,3,0,1,2,3,0,1,2,3,0,1,2,3,0,1,2,3,0,1,2,3,0,1,2,3,0,1,2,3,0,1,2,3,0,1,2,3,0,1,2,3,0,1,2,3,0,1,2,3,0,1,2,3,0,1,2,3,0,1,2,3,0,1,2,3,0,1,2,3,0,1,2,3,0,1,2,3,0,1,2,3,0,1,2,3,0,1,2,3,0,1,2,3,0,1,2,3,0,1,2,3,0,1,2,3,0,1,2,3,0,1,2,3,0,1,2,3,0,1,2,3,0,1,2,3,0,1,2,3,0,1,2,3,0,1,2,3,0,1,2,3,0,1,2,3,0,1,2,3,0,1,2,3,0,1,2,3,0,1,2,3,0,1,2,3,0,1,2,3,0,1,2,3,0,1,2,3,0,1,2,3,0,1,2,3,0,1,2,3,0,1,2,3,0,1,2,3,0,1,2,3,0,1,2,3,0,1,2,3,0,1,2,3,0,1,2,3,0,1,2,3,0,1,2,3,0,1,2,3,0,1,2,3,0,1,2,3,0,1,2,3,0,1,2,3,0,1,2,3,0,1,2,3,0,1,2,3,0,1,2,3,0,1,2,3,0,1,2,3,0,1,2,3,0,1,2,3,0,1,2,3,0,1,2,3,0,1,2,3,0,1,2,3,0,1,2,3,0,1,2,3,0,1,2,3,0,1,2,3,0,1,2,3,0,1,2,3,0,1,2,3,0,1,2,3,0,1,2,3,0,1,2,3,0,1,2,3,0,1,2,3,0,1,2,3,0,1,2,3,0,1,2,3,0,1,2,3,0,1,2,3,0,1,2,3,0,1,2,3,0,1,2,3,0,1,2,3,0,1,2,3,0,1,2,3,0,1,2,3,0,1,2,3,0,1,2,3,0,1,2,3,0,1,2,3,0,1,2,3,0,1,2,3,0,1,2,3,0,1,2,3,0,1,2,3,0,1,2,3,0,1,2,3,0,1,2,3,0,1,2,3,0,1,2,3,0,1,2,3,0,1,2,3,0,1,2,3,0,1,2,3,0,1,2,3,0,1,2,3,0,1,2,3,0,1,2,3,0,1,2,3,0,1,2,3,0,1,2,3,0,1,2,3,0,1,2,3,0,1,2,3,0,1,2,3,0,1,2,3,0,1,2,3,0,1,2,3,0,1,2,3,0,1,2,3,0,1,2,3,0,1,2,3,0,1,2,3,0,1,2,3,0,1,2,3,0,1,2,3,0,1,2,3,0,1,2,3,0,1,2,3,0,1,2,3,0,1,2,3,0,1,2,3,0,1,2,3,0,1,2,3,0,1,2,3,0,1,2,3,0,1,2,3,0,1,2,3,0,1,2,3,0,1,2,3,0,1,2,3,0,1,2,3,0,1,2,3,0,1,2,3,0,1,2,3,0,1,2,3,0,1,2,3,0,1,2,3,0,1,2,3,0,1,2,3,0,1,2,3,0,1,2,3,0,1,2,3,0,1,2,3,0,1,2,3,0,1,2,3,0,1,2,3,0,1,2,3,0,1,2,3,0,1,2,3,0,1,2,3,0,1,2,3,0,1,2,3,0,1,2,3,0,1,2,3,0,1,2,3,0,1,2,3,0,1,2,3,0,1,2,3,0,1,2,3,0,1,2,3,0,1,2,3,0,1,2,3,0,1,2,3,0,1,2,3,0,1,2,3,0,1,2,3,0,1,2,3,0,1,2,3,0,1,2,3,0,1,2,3,0,1,2,3,0,1,2,3,0,1,2,3,0,1,2,3,0,1,2,3,0,1,2,3,0,1,2,3,0,1,2,3,0,1,2,3,0,1,2,3,0,1,2,3,0,1,2,3,0,1,2,3,0,1,2,3,0,1,2,3,0,1,2,3,0,1,2,3,0,1,2,3,0,1,2,3,0,1,2,3,0,1,2,3,0,1,2,3,0,1,2,3,0,1,2,3,0,1,2,3,0,1,2,3,0,1,2,3,0,1,2,3,0,1,2,3,0,1,2,3,0,1,2,3,0,1,2,3,0,1,2,3,0,1,2,3,0,1,2,3,0,1,2,3,0,1,2,3,0,1,2,3,0,1,2,3,0,1,2,3,0,1,2,3,0,1,2,3,0,1,2,3,0,1,2,3,0,1,2,3,0,1,2,3,0,1,2,3,0,1,2,3,0,1,2,3,0,1,2,3,0,1,2,3,0,1,2,3,0,1,2,3,0,1,2,3,0,1,2,3,0,1,2,3,0,1,2,3,0,1,2,3,0,1,2,3,0,1,2,3,0,1,2,3,0,1,2,3,0,1,2,3,0,1,2,3,0,1,2,3,0,1,2,3,0,1,2,3,0,1,2,3,0,1,2,3,0,1,2,3,0,1,2,3,0,1,2,3,0,1,2,3,0,1,2,3,0,1,2,3,0,1,2,3,0,1,2,3,0,1,2,3,0,1,2,3,0,1,2,3,0,1,2,3,0,1,2,3,0,1,2,3,0,1,2,3,0,1,2,3,0,1,2,3,0,1,2,3,0,1,2,3,0,1,2,3,0,1,2,3,0,1,2,3,0,1,2,3,0,1,2,3,0,1,2,3,0,1,2,3,0,1,2,3,0,1,2,3,0,1,2,3,0,1,2,3,0,1,2,3,0,1,2,3,0,1,2,3,0,1,2,3,0,1,2,3,0,1,2,3,0,1,2,3,0,1,2,3,0,1,2,3,0,1,2,3,0,1,2,3,0,1,2,3,0,1,2,3,0,1,2,3,0,1,2,3,0,1,2,3,0,1,2,3,0,1,2,3,0,1,2,3,0,1,2,3,0,1,2,3,0,1,2,3,0,1,2,3,0,1,2,3,0,1,2,3,0,1,2,3,0,1,2,3,0,1,2,3,0,1,2,3,0,1,2,3,0,1,2,3,0,1,2,3,0,1,2,3,0,1,2,3,0,1,2,3,0,1,2,3,0,1,2,3,0,1,2,3,0,1,2,3,0,1,2,3,0,1,2,3,0,1,2,3,0,1,2,3,0,1,2,3,0,1,2,3,0,1,2,3,0,1,2,3,0,1,2,3,0,1,2,3,0,1,2,3,0,1,2,3,0,1,2,3,0,1,2,3,0,1,2,3,0,1,2,3,0,1,2,3,0,1,2,3,0,1,2,3,0,1,2,3,0,1,2,3,0,1,2,3,0,1,2,3,0,1,2,3,0,1,2,3,0,1,2,3,0,1,2,3,0,1,2,3,0,1,2,3,0,1,2,3,0,1,2,3,0,1,2,3,0,1,2,3,0,1,2,3,0,1,2,3,0,1,2,3,0,1,2,3,0,1,2,3,0,1,2,3,0,1,2,3,0,1,2,3,0,1,2,3,0,1,2,3,0,1,2,3,0,1,2,3,0,1,2,3,0,1,2,3,0,1,2,3,0,1,2,3,0,1,2,3,0,1,2,3,0,1,2,3,0,1,2,3,0,1,2,3,0,1,2,3,0,1,2,3,0,1,2,3,0,1,2,3,0,1,2,3,0,1,2,3,0,1,2,3,0,1,2,3,0,1,2,3,0,1,2,3,0,1,2,3,0,1,2,3,0,1,2,3,0,1,2,3,0,1,2,3,0,1,2,3,0,1,2,3,0,1,2,3,0,1,2,3,0,1,2,3,0,1,2,3,0,1,2,3,0,1,2,3,0,1,2,3,0,1,2,3,0,1,2,3,0,1,2,3,0,1,2,3,0,1,2,3,0,1,2,3,0,1,2,3,0,1,2,3,0,1,2,3,0,1,2,3,0,1,2,3,0,1,2,3,0,1,2,3,0,1,2,3,0,1,2,3,0,1,2,3,0,1,2,3,0,1,2,3,0,1,2,3,0,1,2,3,0,1,2,3,0,1,2,3,0,1,2,3,0,1,2,3,0,1,2,3,0,1,2,3,0,1,2,3,0,1,2,3,0,1,2,3,0,1,2,3,0,1,2,3,0,1,2,3,0,1,2,3,0,1,2,3,0,1,2,3,0,1,2,3,0,1,2,3,0,1,2,3,0,1,2,3,0,1,2,3,0,1,2,3,0,1,2,3,0,1,2,3,0,1,2,3,0,1,2,3,0,1,2,3,0,1,2,3,0,1,2,3,0,1,2,3,0,1,2,3,0,1,2,3,0,1,2,3,0,1,2,3,0,1,2,3,0,1,2,3,0,1,2,3,0,1,2,3,0,1,2,3,0,1,2,3,0,1,2,3,0,1,2,3,0,1,2,3,0,1,2,3,0,1,2,3,0,1,2,3,0,1,2,3,0,1,2,3,0,1,2,3,0,1,2,3,0,1,2,3,0,1,2,3,0,1,2,3,0,1,2,3,0,1,2,3,0,1,2,3,0,1,2,3,0,1,2,3,0,1,2,3,0,1,2,3,0,1,2,3,0,1,2,3,0,1,2,3,0,1,2,3,0,1,2,3,0,1,2,3,0,1,2,3,0,1,2,3,0,1,2,3,0,1,2,3,0,1,2,3,0,1,2,3,0,1,2,3,0,1,2,3,0,1,2,3,0,1,2,3,0,1,2,3,0,1,2,3,0,1,2,3,0,1,2,3,0,1,2,3,0,1,2,3,0,1,2,3,0,1,2,3,0,1,2,3,0,1,2,3,0,1,2,3,0,1,2,3,0,1,2,3,0,1,2,3,0,1,2,3,0,1,2,3,0,1,2,3,0,1,2,3,0,1,2,3,0,1,2,3,0,1,2,3,0,1,2,3,0,1,2,3,0,1,2,3,0,1,2,3,0,1,2,3,0,1,2,3,0,1,2,3,0,1,2,3,0,1,2,3,0,1,2,3,0,1,2,3,0,1,2,3,0,1,2,3,0,1,2,3,0,1,2,3,0,1,2,3,0,1,2,3,0,1,2,3,0,1,2,3,0,1,2,3,0,1,2,3,0,1,2,3,0,1,2,3,0,1,2,3,0,1,2,3,0,1,2,3,0,1,2,3,0,1,2,3,0,1,2,3,0,1,2,3,0,1,2,3,0,1,2,3,0,1,2,3,0,1,2,3,0,1,2,3,0,1,2,3,0,1,2,3,0,1,2,3,0,1,2,3,0,1,2,3,0,1,2,3,0,1,2,3,0,1,2,3,0,1,2,3,0,1,2,3,0,1,2,3,0,1,2,3,0,1,2,3,0,1,2,3,0,1,2,3,0,1,2,3,0,1,2,3,0,1,2,3,0,1,2,3,0,1,2,3,0,1,2,3,0,1,2,3,0,1,2,3,0,1,2,3,0,1,2,3,0,1,2,3,0,1,2,3,0,1,2,3,0,1,2,3,0,1,2,3,0,1,2,3,0,1,2,3,0,1,2,3,0,1,2,3,0,1,2,3,0,1,2,3,0,1,2,3,0,1,2,3,0,1,2,3,0,1,2,3,0,1,2,3,0,1,2,3],"trees":[{"base_weights":[-0E0,-3.9085713E-1,3.9491916E-1,-6.580332E-1,2.487946E-1,-3.3170436E-2,1.3373297E0,-4.918033E-1,-3.3220198E-2,5.701625E-1,-3.478261E-1,1.5384616E-1,1.5249527E0,2.9411767E-2,-3.0973453E-2,-8.877285E-2,1.3907285E0,8.108108E-1,-6.225166E-1,-3.1707317E-2,1.3846154E0,5.321101E-1,1.6737072E0,-5.365854E-1,1.1538461E0,-2.3076924E-2,1.5211267E0,7.6E-2,-2.5E-2,-3.240418E-2,-4.3478264E-3,9.0697676E-2,-2.3076924E-2,-3.0973453E-2,1.6460177E0,1.7467182E0,4.1860464E-1,-3.2258064E-2,6.382979E-3,-1.25E-2,8.0000006E-2,3.6448598E-2,9.567568E-2,8.8118814E-2,2.0000001E-2,9.072E-2,-5.6603774E-3,-1.5254237E-2,7.714286E-2],"categories":[],"categories_nodes":[],"categories_segments":[],"categories_sizes":[],"default_left":[0,0,0,0,0,0,0,0,0,0,0,0,0,0,0,0,0,0,0,0,0,0,0,0,0,0,0,0,0,0,0,0,0,0,0,0,0,0,0,0,0,0,0,0,0,0,0,0,0],"id":0,"left_children":[1,3,5,7,9,-1,11,13,-1,15,17,19,21,-1,-1,23,25,27,29,-1,31,33,35,37,39,-1,41,-1,-1,-1,-1,-1,-1,-1,43,45,47,-1,-1,-1,-1,-1,-1,-1,-1,-1,-1,-1,-1],"loss_changes":[1.3436775E2,7.493229E1,4.3275244E2,3.5095215E-4,2.5051933E1,0E0,5.0697784E1,2.4671237E0,0E0,4.5880188E1,1.5145002E1,3.2397747E1,2.8333557E1,0E0,0E0,2.7259674E1,9.819908E0,9.358919E0,4.605446E-1,0E0,1.1141323E1,3.597467E1,1.499588E1,2.6697025E0,8.542309E0,0E0,9.639603E0,0E0,0E0,0E0,0E0,0E0,0E0,0E0,1.3429604E0,2.0582733E1,9.217005E0,0E0,0E0,0E0,0E0,0E0,0E0,0E0,0E0,0E0,0E0,0E0,0E0],"parents":[2147483647,0,0,1,1,2,2,3,3,4,4,6,6,7,7,9,9,10,10,11,11,12,12,15,15,16,16,17,17,18,18,20,20,21,21,22,22,23,23,24,24,26,26,34,34,35,35,36,36],"right_children":[2,4,6,8,10,-1,12,14,-1,16,18,20,22,-1,-1,24,26,28,30,-1,32,34,36,38,40,-1,42,-1,-1,-1,-1,-1,-1,-1,44,46,48,-1,-1,-1,-1,-1,-1,-1,-1,-1,-1,-1,-1],"split_conditions":[-3.8121212E-2,1.5892707E-2,5.7735026E-1,-1.4262118E0,2.0798569E0,-3.3170436E-2,-2.582988E-2,-8.221697E-2,-3.3220198E-2,-7.4642056E-1,-1.538911E-1,-3.6631754E-1,-1.1173055E0,2.9411767E-2,-3.0973453E-2,1.226147E0,5.7735026E-1,-7.4642056E-1,1.2976613E0,-3.1707317E-2,1.5159732E0,4.453281E-1,1.5981693E0,1.0144715E0,-1.2160637E0,-2.3076924E-2,4.084431E-1,7.6E-2,-2.5E-2,-3.240418E-2,-4.3478264E-3,9.0697676E-2,-2.3076924E-2,-3.0973453E-2,1.5998057E0,1.9577281E0,-2.3602645E-1,-3.2258064E-2,6.382979E-3,-1.25E-2,8.0000006E-2,3.6448598E-2,9.567568E-2,8.8118814E-2,2.0000001E-2,9.072E-2,-5.6603774E-3,-1.5254237E-2,7.714286E-2],"split_indices":[1,2,15,2,2,0,1,4,0,1,9,2,2,0,0,2,15,1,11,0,2,1,8,2,1,0,2,0,0,0,0,0,0,0,14,2,9,0,0,0,0,0,0,0,0,0,0,0,0],"split_type":[0,0,0,0,0,0,0,0,0,0,0,0,0,0,0,0,0,0,0,0,0,0,0,0,0,0,0,0,0,0,0,0,0,0,0,0,0,0,0,0,0,0,0,0,0,0,0,0,0],"sum_hessian":[8.685E2,4.365E2,4.32E2,3.07875E2,1.28625E2,2.03625E2,2.28375E2,1.425E1,2.93625E2,8.3625E1,4.5E1,3.15E1,1.96875E2,1.125E0,1.3125E1,4.6875E1,3.675E1,8.25E0,3.675E1,1.95E1,1.2E1,2.625E1,1.70625E2,3.4875E1,1.2E1,2.25E0,3.45E1,5.25E0,3E0,3.4875E1,1.875E0,9.75E0,2.25E0,1.3125E1,1.3125E1,1.60875E2,9.75E0,3E1,4.875E0,3E0,9E0,1.2375E1,2.2125E1,1.1625E1,1.5E0,1.5525E2,5.625E0,6.375E0,3.375E0],"tree_param":{"num_deleted":"0","num_feature":"16","num_nodes":"49","size_leaf_vector":"1"}},{"base_weights":[-0E0,1.2125984E0,-4.1573468E-1,1.8464E0,-2.835821E-1,-5.2236897E-1,5.92E-1,9.863791E-2,1.5119363E0,7.073171E-2,-4.1749504E-1,2.4920128E-1,-6.39843E-1,1.2817338E0,-3.1891894E-2,9.745223E-2,-2.9577464E-2,4.5801528E-2,-5.6842107E-1,1.5384616E0,-3.2620322E-2,-3.3260092E-2,-4.1986457E-1,-2.972973E-2,1.7821012E0,8.048781E-2,-3.0612245E-2,-3.1412106E-2,4.8780486E-2,9.135135E-2,7.4698794E-1,-3.2663316E-2,1.3962264E0,5.882353E-3,1.8387097E0,-2.5E-2,5.294118E-2,8.4E-2,-2.682927E-2,5.882353E-3,8.1818186E-2,9.478261E-2,3.846154E-2],"categories":[],"categories_nodes":[],"categories_segments":[],"categories_sizes":[],"default_left":[0,0,0,0,0,0,0,0,0,0,0,0,0,0,0,0,0,0,0,0,0,0,0,0,0,0,0,0,0,0,0,0,0,0,0,0,0,0,0,0,0,0,0],"id":1,"left_children":[1,3,5,7,9,11,13,-1,15,-1,17,19,21,23,-1,-1,-1,25,27,29,-1,-1,31,-1,33,-1,-1,-1,35,-1,37,-1,39,-1,41,-1,-1,-1,-1,-1,-1,-1,-1],"loss_changes":[4.388358E2,2.1127917E2,6.9969604E1,3.6207886E0,1.5827284E1,5.3342133E1,5.3833824E1,0E0,4.4482086E1,0E0,4.422475E0,9.196204E1,2.562912E0,3.8965843E1,0E0,0E0,0E0,1.7837975E1,1.7844238E0,6.057968E0,0E0,0E0,2.4384396E1,0E0,2.8105698E0,0E0,0E0,0E0,3.3701577E0,0E0,1.3326452E1,0E0,1.8415899E0,0E0,4.2967224E-1,0E0,0E0,0E0,0E0,0E0,0E0,0E0,0E0],"parents":[2147483647,0,0,1,1,2,2,3,3,4,4,5,5,6,6,8,8,10,10,11,11,12,12,13,13,17,17,18,18,19,19,22,22,24,24,28,28,30,30,32,32,34,34],"right_children":[2,4,6,8,10,12,14,-1,16,-1,18,20,22,24,-1,-1,-1,26,28,30,-1,-1,32,-1,34,-1,-1,-1,36,-1,38,-1,40,-1,42,-1,-1,-1,-1,-1,-1,-1,-1],"split_conditions":[-7.522427E-1,2.4936476E-4,2.0798569E0,-3.778611E-1,-1.9630877E0,-1.1173055E0,-2.582988E-2,9.863791E-2,-1.0874001E0,7.073171E-2,-1.2899824E0,-4.8591873E-1,1.6425322E0,5.7735026E-1,-3.1891894E-2,9.745223E-2,-2.9577464E-2,1.430715E-1,7.4910897E-1,-5.209958E-1,-3.2620322E-2,-3.3260092E-2,1.223455E0,-2.972973E-2,-7.4642056E-1,8.048781E-2,-3.0612245E-2,-3.1412106E-2,-9.849817E-1,9.135135E-2,-1.4933105E0,-3.2663316E-2,2.0929445E-1,5.882353E-3,-3.8121212E-2,-2.5E-2,5.294118E-2,8.4E-2,-2.682927E-2,5.882353E-3,8.1818186E-2,9.478261E-2,3.846154E-2],"split_indices":[1,2,2,2,9,2,1,0,1,0,1,1,8,15,0,0,0,2,7,1,0,0,3,0,1,0,0,0,1,0,2,0,7,0,1,0,0,0,0,0,0,0,0],"split_type":[0,0,0,0,0,0,0,0,0,0,0,0,0,0,0,0,0,0,0,0,0,0,0,0,0,0,0,0,0,0,0,0,0,0,0,0,0,0,0,0,0,0,0],"sum_hessian":[8.685E2,2.2125E2,6.4725E2,1.5525E2,6.6E1,5.8575E2,6.15E1,1.09125E2,4.6125E1,4.125E0,6.1875E1,7.725E1,5.085E2,3.9375E1,2.2125E1,3.825E1,7.875E0,1.5375E1,4.65E1,3.15E1,4.575E1,4.54125E2,5.4375E1,8.25E0,3.1125E1,4.125E0,1.125E1,4.2375E1,4.125E0,2.2125E1,9.375E0,4.875E1,5.625E0,1.125E0,3E1,3E0,1.125E0,5.25E0,4.125E0,1.125E0,4.5E0,2.775E1,2.25E0],"tree_param":{"num_deleted":"0","num_feature":"16","num_nodes":"43","size_leaf_vector":"1"}},{"base_weights":[-0E0,3.4366986E-1,-5.51028E-1,5.2625537E-1,-4.4334975E-1,2.1459228E-1,-6.220408E-1,-3.2987747E-1,8.980263E-1,6.122449E-1,-5.8171743E-1,8.9189194E-2,-4.9101797E-1,-6.608238E-1,-9.090909E-2,-6.513761E-1,1.106599E0,7.594936E-2,1.1814159E0,7.735849E-2,-4.1509435E-1,-6.0227275E-1,1.5384616E-1,1.7142858E-1,-3.142857E-2,5.882353E-3,-3.3216015E-2,-3.0769233E-2,6E-1,5.882353E-3,-3.3024337E-2,2.5742576E-1,9.2307694E-2,-4.765784E-1,9.4630875E-2,1.4576272E0,-4.105572E-2,5.882353E-3,-2.727273E-2,-6.225564E-1,-2.1276596E-1,2.9411767E-2,-1.764706E-2,5.294118E-2,-2.3076924E-2,7.894737E-2,-2.4E-1,-2.9411767E-2,8.048781E-2,-3.269231E-2,2.2891566E-2,8.457399E-2,3.5869565E-2,9.0697676E-2,-3.2319393E-2,-3.164557E-2,-1.7073171E-2,-2.6315792E-2,2.9411767E-2,2.0000001E-2,-2.6315792E-2],"categories":[],"categories_nodes":[],"categories_segments":[],"categories_sizes":[],"default_left":[0,0,0,0,0,0,0,0,0,0,0,0,0,0,0,0,0,0,0,0,0,0,0,0,0,0,0,0,0,0,0,0,0,0,0,0,0,0,0,0,0,0,0,0,0,0,0,0,0,0,0,0,0,0,0,0,0,0,0,0,0],"id":2,"left_children":[1,3,5,7,9,11,13,15,17,19,21,-1,23,25,27,29,31,33,35,-1,37,39,41,43,-1,-1,-1,-1,45,-1,-1,47,-1,49,-1,51,53,-1,-1,55,57,-1,-1,-1,-1,-1,59,-1,-1,-1,-1,-1,-1,-1,-1,-1,-1,-1,-1,-1,-1],"loss_changes":[1.6484808E2,7.727362E1,1.8313065E1,1.3894928E2,1.5181265E1,3.3124165E1,6.248329E0,6.1970387E1,7.073256E1,1.2408163E1,1.4572105E0,0E0,2.009923E0,8.545685E-1,8.341259E0,8.413811E-1,1.4989504E1,8.019899E1,7.637106E1,0E0,5.24266E-1,5.6279564E-1,9.230769E-1,2.946089E0,0E0,0E0,0E0,0E0,8.602104E0,0E0,0E0,1.5385031E1,0E0,1.0465549E1,0E0,3.0703003E1,4.9035988E1,0E0,0E0,2.5836945E-2,1.7851261E0,0E0,0E0,0E0,0E0,0E0,1.3557894E0,0E0,0E0,0E0,0E0,0E0,0E0,0E0,0E0,0E0,0E0,0E0,0E0,0E0,0E0],"parents":[2147483647,0,0,1,1,2,2,3,3,4,4,5,5,6,6,7,7,8,8,9,9,10,10,12,12,13,13,14,14,15,15,16,16,17,17,18,18,20,20,21,21,22,22,23,23,28,28,31,31,33,33,35,35,36,36,39,39,40,40,46,46],"right_children":[2,4,6,8,10,12,14,16,18,20,22,-1,24,26,28,30,32,34,36,-1,38,40,42,44,-1,-1,-1,-1,46,-1,-1,48,-1,50,-1,52,54,-1,-1,56,58,-1,-1,-1,-1,-1,60,-1,-1,-1,-1,-1,-1,-1,-1,-1,-1,-1,-1,-1,-1],"split_conditions":[2.1938124E-1,7.8113616E-1,-1.1173055E0,-9.902832E-1,-1.2160637E0,4.453281E-1,2.0798569E0,2.4936476E-4,-7.5597155E-1,1.8970852E0,1.7169055E0,8.9189194E-2,7.079013E-1,-1.291578E0,5.7735026E-1,-1.1744261E0,-1.2899824E0,-4.8591873E-1,-2.582988E-2,7.735849E-2,-1.6607044E0,1.9991928E-1,8.719948E-1,-1.4933105E0,-3.142857E-2,5.882353E-3,-3.3216015E-2,-3.0769233E-2,1.1919084E0,5.882353E-3,-3.3024337E-2,1.430715E-1,9.2307694E-2,-5.209958E-1,9.4630875E-2,1.5892707E-2,-7.476156E-1,5.882353E-3,-2.727273E-2,1.2335802E0,1.6055624E0,2.9411767E-2,-1.764706E-2,5.294118E-2,-2.3076924E-2,7.894737E-2,-2.3602645E-1,-2.9411767E-2,8.048781E-2,-3.269231E-2,2.2891566E-2,8.457399E-2,3.5869565E-2,9.0697676E-2,-3.2319393E-2,-3.164557E-2,-1.7073171E-2,-2.6315792E-2,2.9411767E-2,2.0000001E-2,-2.6315792E-2],"split_indices":[1,2,2,1,1,1,2,2,2,2,3,0,1,8,15,2,1,1,1,0,10,1,7,2,0,0,0,0,1,0,0,2,0,1,0,2,2,0,0,10,2,0,0,0,0,0,9,0,0,0,0,0,0,0,0,0,0,0,0,0,0],"split_type":[0,0,0,0,0,0,0,0,0,0,0,0,0,0,0,0,0,0,0,0,0,0,0,0,0,0,0,0,0,0,0,0,0,0,0,0,0,0,0,0,0,0,0,0,0,0,0,0,0,0,0,0,0,0,0,0,0,0,0,0,0],"sum_hessian":[8.685E2,5.35125E2,3.33375E2,4.34625E2,1.005E2,2.8125E1,3.0525E2,1.31625E2,3.03E2,1.125E1,8.925E1,8.25E0,1.9875E1,2.8425E2,2.1E1,1.08E2,2.3625E1,7.8E1,2.25E2,5.625E0,5.625E0,8.7E1,2.25E0,3.375E0,1.65E1,1.125E0,2.83125E2,1.2E1,9E0,1.125E0,1.06875E2,1.1625E1,1.2E1,6.0375E1,1.7625E1,1.83375E2,4.1625E1,1.125E0,4.5E0,8.2125E1,4.875E0,1.125E0,1.125E0,1.125E0,2.25E0,3.75E0,5.25E0,7.5E0,4.125E0,5.1E1,9.375E0,1.38375E2,4.5E1,9.75E0,3.1875E1,7.8E1,4.125E0,3.75E0,1.125E0,1.5E0,3.75E0],"tree_param":{"num_deleted":"0","num_feature":"16","num_nodes":"61","size_leaf_vector":"1"}},{"base_weights":[-0E0,9.9541545E-2,-3.328224E-2],"categories":[],"categories_nodes":[],"categories_segments":[],"categories_sizes":[],"default_left":[0,0,0],"id":3,"left_children":[1,-1,-1],"loss_changes":[1.1535746E3,0E0,0E0],"parents":[2147483647,0,0],"right_children":[2,-1,-1],"split_conditions":[5.7735026E-1,9.9541545E-2,-3.328224E-2],"split_indices":[15,0,0],"split_type":[0,0,0],"sum_hessian":[8.685E2,2.17125E2,6.51375E2],"tree_param":{"num_deleted":"0","num_feature":"16","num_nodes":"3","size_leaf_vector":"1"}},{"base_weights":[4.6118243E-5,-3.8301194E-1,3.774116E-1,-6.5059453E-1,2.3865132E-1,-3.279011E-2,1.2391763E0,-4.8169133E-1,-3.285488E-2,5.4064316E-1,-3.398192E-1,1.5192558E-1,1.4035487E0,2.9009104E-2,-3.0553881E-2,-9.004152E-2,1.2962769E0,7.71786E-1,-6.147813E-1,-3.1360038E-2,1.3066416E0,5.065896E-1,1.5330167E0,-5.313054E-1,1.0796216E0,-2.2738725E-2,1.4128907E0,7.098084E-2,-2.4645206E-2,-3.2028217E-2,-4.264306E-3,8.498386E-2,-2.2939282E-2,-3.0615566E-2,1.5174595E0,1.5959884E0,4.0143007E-1,-3.200249E-2,6.0104583E-3,-1.2243558E-2,7.393151E-2,3.4634944E-2,8.7902375E-2,8.0933414E-2,1.9221371E-2,8.2734145E-2,-5.6234854E-3,-1.5025641E-2,7.217275E-2],"categories":[],"categories_nodes":[],"categories_segments":[],"categories_sizes":[],"default_left":[0,0,0,0,0,0,0,0,0,0,0,0,0,0,0,0,0,0,0,0,0,0,0,0,0,0,0,0,0,0,0,0,0,0,0,0,0,0,0,0,0,0,0,0,0,0,0,0,0],"id":4,"left_children":[1,3,5,7,9,-1,11,13,-1,15,17,19,21,-1,-1,23,25,27,29,-1,31,33,35,37,39,-1,41,-1,-1,-1,-1,-1,-1,-1,43,45,47,-1,-1,-1,-1,-1,-1,-1,-1,-1,-1,-1,-1],"loss_changes":[1.25705795E2,7.194266E1,3.9085913E2,1.5151978E-2,2.299699E1,0E0,4.25343E1,2.4073408E0,0E0,4.1189545E1,1.4352648E1,3.0089607E1,2.3338501E1,0E0,0E0,2.5302118E1,8.662041E0,8.440113E0,4.4991875E-1,0E0,1.0099968E1,3.2244637E1,1.2255157E1,2.5890684E0,7.4721193E0,0E0,7.9957275E0,0E0,0E0,0E0,0E0,0E0,0E0,0E0,1.0786896E0,1.7343292E1,8.389068E0,0E0,0E0,0E0,0E0,0E0,0E0,0E0,0E0,0E0,0E0,0E0,0E0],"parents":[2147483647,0,0,1,1,2,2,3,3,4,4,6,6,7,7,9,9,10,10,11,11,12,12,15,15,16,16,17,17,18,18,20,20,21,21,22,22,23,23,24,24,26,26,34,34,35,35,36,36],"right_children":[2,4,6,8,10,-1,12,14,-1,16,18,20,22,-1,-1,24,26,28,30,-1,32,34,36,38,40,-1,42,-1,-1,-1,-1,-1,-1,-1,44,46,48,-1,-1,-1,-1,-1,-1,-1,-1,-1,-1,-1,-1],"split_conditions":[-3.8121212E-2,1.5892707E-2,5.7735026E-1,-1.4262118E0,2.0798569E0,-3.279011E-2,-2.582988E-2,-8.221697E-2,-3.285488E-2,-7.4642056E-1,-1.538911E-1,-3.6631754E-1,-1.1173055E0,2.9009104E-2,-3.0553881E-2,1.226147E0,5.7735026E-1,-7.4642056E-1,1.2976613E0,-3.1360038E-2,1.5159732E0,4.453281E-1,1.5981693E0,1.0144715E0,-1.2160637E0,-2.2738725E-2,4.084431E-1,7.098084E-2,-2.4645206E-2,-3.2028217E-2,-4.264306E-3,8.498386E-2,-2.2939282E-2,-3.0615566E-2,1.5998057E0,1.9577281E0,-2.3602645E-1,-3.200249E-2,6.0104583E-3,-1.2243558E-2,7.393151E-2,3.4634944E-2,8.7902375E-2,8.0933414E-2,1.9221371E-2,8.2734145E-2,-5.6234854E-3,-1.5025641E-2,7.217275E-2],"split_indices":[1,2,15,2,2,0,1,4,0,1,9,2,2,0,0,2,15,1,11,0,2,1,8,2,1,0,2,0,0,0,0,0,0,0,14,2,9,0,0,0,0,0,0,0,0,0,0,0,0],"split_type":[0,0,0,0,0,0,0,0,0,0,0,0,0,0,0,0,0,0,0,0,0,0,0,0,0,0,0,0,0,0,0,0,0,0,0,0,0,0,0,0,0,0,0,0,0,0,0,0,0],"sum_hessian":[8.67618E2,4.3055405E2,4.3706393E2,3.0096368E2,1.2959036E2,1.9886888E2,2.3819507E2,1.3941242E1,2.8702243E2,8.518483E1,4.4405533E1,3.1534254E1,2.0666081E2,1.1357801E0,1.2805462E1,4.6911392E1,3.8273434E1,8.447492E0,3.5958042E1,1.910219E1,1.2432064E1,2.6686762E1,1.7997406E2,3.4457726E1,1.2453666E1,2.2086644E0,3.606477E1,5.5050545E0,2.9424367E0,3.4088394E1,1.8696487E0,1.0198765E1,2.2332993E0,1.2853684E1,1.38330765E1,1.7009789E2,9.876174E0,2.9544111E1,4.9136167E0,2.9725864E0,9.481079E0,1.2658631E1,2.340614E1,1.23052845E1,1.5277926E0,1.6447865E2,5.6192317E0,6.3262243E0,3.54995E0],"tree_param":{"num_deleted":"0","num_feature":"16","num_nodes":"49","size_leaf_vector":"1"}},{"base_weights":[6.4919645E-5,1.1283127E0,-4.076395E-1,1.6862478E0,-2.7785262E-1,-5.140241E-1,5.614968E-1,8.980283E-2,1.3922945E0,6.6172935E-2,-4.1063127E-1,2.39151E-1,-6.3212496E-1,1.191656E0,-3.1540163E-2,8.863791E-2,-2.9245043E-2,4.4999845E-2,-5.615131E-1,1.4196637E0,-3.2256417E-2,-3.288924E-2,-4.1116178E-1,-2.9316008E-2,1.6310676E0,7.483339E-2,-3.025796E-2,-3.109398E-2,5.203053E-2,8.3484314E-2,7.0879906E-1,-3.2284584E-2,1.3082448E0,5.61592E-3,1.6802025E0,-2.4746478E-2,5.176387E-2,7.872766E-2,-2.6711777E-2,7.649853E-2,5.3285006E-3,8.644651E-2,3.6421996E-2],"categories":[],"categories_nodes":[],"categories_segments":[],"categories_sizes":[],"default_left":[0,0,0,0,0,0,0,0,0,0,0,0,0,0,0,0,0,0,0,0,0,0,0,0,0,0,0,0,0,0,0,0,0,0,0,0,0,0,0,0,0,0,0],"id":5,"left_children":[1,3,5,7,9,11,13,-1,15,-1,17,19,21,23,-1,-1,-1,25,27,29,-1,-1,31,-1,33,-1,-1,-1,35,-1,37,-1,39,-1,41,-1,-1,-1,-1,-1,-1,-1,-1],"loss_changes":[3.9997064E2,1.815466E2,6.614056E1,2.837738E0,1.4666224E1,5.139174E1,4.8578762E1,0E0,3.821795E1,0E0,4.2944126E0,8.318538E1,2.554535E0,3.376266E1,0E0,0E0,0E0,1.6360077E1,1.762948E0,4.8707733E0,0E0,0E0,2.2824802E1,0E0,2.343605E0,0E0,0E0,0E0,3.2596147E0,0E0,1.2249639E1,0E0,1.6681833E0,0E0,2.6171112E-1,0E0,0E0,0E0,0E0,0E0,0E0,0E0,0E0],"parents":[2147483647,0,0,1,1,2,2,3,3,4,4,5,5,6,6,8,8,10,10,11,11,12,12,13,13,17,17,18,18,19,19,22,22,24,24,28,28,30,30,32,32,34,34],"right_children":[2,4,6,8,10,12,14,-1,16,-1,18,20,22,24,-1,-1,-1,26,28,30,-1,-1,32,-1,34,-1,-1,-1,36,-1,38,-1,40,-1,42,-1,-1,-1,-1,-1,-1,-1,-1],"split_conditions":[-7.522427E-1,2.4936476E-4,2.0798569E0,-3.778611E-1,-1.9630877E0,-1.1173055E0,-2.582988E-2,8.980283E-2,-1.0874001E0,6.6172935E-2,-1.2899824E0,-4.8591873E-1,1.6425322E0,5.7735026E-1,-3.1540163E-2,8.863791E-2,-2.9245043E-2,1.430715E-1,7.4910897E-1,-5.209958E-1,-3.2256417E-2,-3.288924E-2,1.223455E0,-2.9316008E-2,-7.4642056E-1,7.483339E-2,-3.025796E-2,-3.109398E-2,-9.849817E-1,8.3484314E-2,-1.4933105E0,-3.2284584E-2,-2.6988563E-1,5.61592E-3,-3.8121212E-2,-2.4746478E-2,5.176387E-2,7.872766E-2,-2.6711777E-2,7.649853E-2,5.3285006E-3,8.644651E-2,3.6421996E-2],"split_indices":[1,2,2,2,9,2,1,0,1,0,1,1,8,15,0,0,0,2,7,1,0,0,3,0,1,0,0,0,1,0,2,0,9,0,1,0,0,0,0,0,0,0,0],"split_type":[0,0,0,0,0,0,0,0,0,0,0,0,0,0,0,0,0,0,0,0,0,0,0,0,0,0,0,0,0,0,0,0,0,0,0,0,0,0,0,0,0,0,0],"sum_hessian":[8.675173E2,2.2980533E2,6.377119E2,1.6438274E2,6.54226E1,5.7505615E2,6.265579E1,1.1595629E2,4.842644E1,4.3227534E0,6.1099842E1,7.780954E1,4.9724658E2,4.0991394E1,2.1664396E1,4.0698414E1,7.7280307E0,1.5374345E1,4.57255E1,3.3063858E1,4.4745686E1,4.437396E2,5.3507008E1,8.056862E0,3.2934532E1,4.353004E0,1.1021341E1,4.1617203E1,4.1082973E0,2.3462801E1,9.601055E0,4.76341E1,5.872903E0,1.1350889E0,3.1799442E1,2.9589381E0,1.1493592E0,5.502175E0,4.09888E0,4.727428E0,1.145475E0,2.9473902E1,2.3255398E0],"tree_param":{"num_deleted":"0","num_feature":"16","num_nodes":"43","size_leaf_vector":"1"}},{"base_weights":[2.499529E-4,3.292353E-1,-5.428065E-1,5.0105906E-1,-4.3501648E-1,2.0738865E-1,-6.14256E-1,-3.2229203E-1,8.4457004E-1,5.84846E-1,-5.736583E-1,8.203637E-2,-4.828159E-1,-6.534146E-1,-8.7947845E-2,-6.437398E-1,1.0356907E0,7.358048E-2,1.1010938E0,7.216986E-2,-4.0877473E-1,-5.9444076E-1,1.5517905E-1,1.7071788E-1,-3.1070292E-2,5.9561124E-3,-3.2848254E-2,-3.0383298E-2,5.7070684E-1,5.986356E-3,-3.2649677E-2,2.4657457E-1,8.457356E-2,-3.23205E-2,1.3228959E0,1.3445214E0,-3.5150953E-2,5.688958E-3,-2.6946742E-2,-6.149161E-1,-2.0623381E-1,2.9305825E-2,-1.7545525E-2,5.1328894E-2,-2.2816872E-2,7.3927894E-2,-2.391543E-1,-2.9106772E-2,7.482811E-2,2.1845428E-2,8.6428545E-2,7.744178E-2,3.3888202E-2,8.571745E-2,-3.19652E-2,-3.1266015E-2,-1.676614E-2,-2.5957799E-2,2.8562758E-2,1.9024905E-2,-2.6103202E-2],"categories":[],"categories_nodes":[],"categories_segments":[],"categories_sizes":[],"default_left":[0,0,0,0,0,0,0,0,0,0,0,0,0,0,0,0,0,0,0,0,0,0,0,0,0,0,0,0,0,0,0,0,0,0,0,0,0,0,0,0,0,0,0,0,0,0,0,0,0,0,0,0,0,0,0,0,0,0,0,0,0],"id":6,"left_children":[1,3,5,7,9,11,13,15,17,19,21,-1,23,25,27,29,31,33,35,-1,37,39,41,43,-1,-1,-1,-1,45,-1,-1,47,-1,-1,49,51,53,-1,-1,55,57,-1,-1,-1,-1,-1,59,-1,-1,-1,-1,-1,-1,-1,-1,-1,-1,-1,-1,-1,-1],"loss_changes":[1.553473E2,7.132445E1,1.771048E1,1.2544129E2,1.4465115E1,2.9752193E1,6.1205063E0,5.7854492E1,6.1734406E1,1.1214268E1,1.4323845E0,0E0,1.9656806E0,8.431015E-1,7.8483243E0,8.3094406E-1,1.2757446E1,7.200655E1,6.489441E1,0E0,5.0697386E-1,5.585995E-1,9.135789E-1,2.8172925E0,0E0,0E0,0E0,0E0,7.8388987E0,0E0,0E0,1.4053065E1,0E0,0E0,9.757259E0,2.525711E1,4.5848423E1,0E0,0E0,2.7114868E-2,1.7137113E0,0E0,0E0,0E0,0E0,0E0,1.2928298E0,0E0,0E0,0E0,0E0,0E0,0E0,0E0,0E0,0E0,0E0,0E0,0E0,0E0,0E0],"parents":[2147483647,0,0,1,1,2,2,3,3,4,4,5,5,6,6,7,7,8,8,9,9,10,10,12,12,13,13,14,14,15,15,16,16,17,17,18,18,20,20,21,21,22,22,23,23,28,28,31,31,34,34,35,35,36,36,39,39,40,40,46,46],"right_children":[2,4,6,8,10,12,14,16,18,20,22,-1,24,26,28,30,32,34,36,-1,38,40,42,44,-1,-1,-1,-1,46,-1,-1,48,-1,-1,50,52,54,-1,-1,56,58,-1,-1,-1,-1,-1,60,-1,-1,-1,-1,-1,-1,-1,-1,-1,-1,-1,-1,-1,-1],"split_conditions":[2.1938124E-1,7.8113616E-1,-1.1173055E0,-9.902832E-1,-1.2160637E0,4.453281E-1,2.0798569E0,2.4936476E-4,-7.5597155E-1,1.8970852E0,1.7169055E0,8.203637E-2,7.079013E-1,-1.291578E0,5.7735026E-1,-1.1744261E0,-1.2899824E0,-5.209958E-1,-2.582988E-2,7.216986E-2,-1.6607044E0,1.9991928E-1,4.14808E-3,-1.4933105E0,-3.1070292E-2,5.9561124E-3,-3.2848254E-2,-3.0383298E-2,1.1919084E0,5.986356E-3,-3.2649677E-2,1.430715E-1,8.457356E-2,-3.23205E-2,-4.8591873E-1,1.5892707E-2,-7.476156E-1,5.688958E-3,-2.6946742E-2,1.2335802E0,1.6055624E0,2.9305825E-2,-1.7545525E-2,5.1328894E-2,-2.2816872E-2,7.3927894E-2,-2.3602645E-1,-2.9106772E-2,7.482811E-2,2.1845428E-2,8.6428545E-2,7.744178E-2,3.3888202E-2,8.571745E-2,-3.19652E-2,-3.1266015E-2,-1.676614E-2,-2.5957799E-2,2.8562758E-2,1.9024905E-2,-2.6103202E-2],"split_indices":[1,2,2,1,1,1,2,2,2,2,3,0,1,8,15,2,1,1,1,0,10,1,10,2,0,0,0,0,1,0,0,2,0,0,1,2,2,0,0,10,2,0,0,0,0,0,9,0,0,0,0,0,0,0,0,0,0,0,0,0,0],"split_type":[0,0,0,0,0,0,0,0,0,0,0,0,0,0,0,0,0,0,0,0,0,0,0,0,0,0,0,0,0,0,0,0,0,0,0,0,0,0,0,0,0,0,0,0,0,0,0,0,0,0,0,0,0,0,0,0,0,0,0,0,0],"sum_hessian":[8.67525E2,5.404889E2,3.2703616E2,4.4155923E2,9.892967E1,2.827334E1,2.9876282E2,1.3000822E2,3.11551E2,1.1454066E1,8.74756E1,8.74193E0,1.9531412E1,2.778487E2,2.0914116E1,1.05549576E2,2.4458656E1,7.81015E1,2.334495E2,5.9018397E0,5.552227E0,8.522972E1,2.245884E0,3.3766556E0,1.6154757E1,1.1221938E0,2.767265E2,1.1733273E1,9.180842E0,1.1210432E0,1.0442853E2,1.1725313E1,1.2733344E1,4.985326E1,2.8248243E1,1.9210901E2,4.134048E1,1.1322868E0,4.41994E0,8.04049E1,4.8248186E0,1.1275998E0,1.1182842E0,1.1584122E0,2.2182431E0,3.9392579E0,5.241585E0,7.3720913E0,4.353222E0,9.524306E0,1.8723936E1,1.4603622E2,4.6072784E1,1.0139891E1,3.1200592E1,7.632804E1,4.0768614E0,3.677123E0,1.1476953E0,1.5348605E0,3.7067244E0],"tree_param":{"num_deleted":"0","num_feature":"16","num_nodes":"61","size_leaf_vector":"1"}},{"base_weights":[-3.6085086E-4,9.0321645E-2,-3.291516E-2],"categories":[],"categories_nodes":[],"categories_segments":[],"categories_sizes":[],"default_left":[0,0,0],"id":7,"left_children":[1,-1,-1],"loss_changes":[1.0339893E3,0E0,0E0],"parents":[2147483647,0,0],"right_children":[2,-1,-1],"split_conditions":[5.7735026E-1,9.0321645E-2,-3.291516E-2],"split_indices":[15,0,0],"split_type":[0,0,0],"sum_hessian":[8.6780005E2,2.311866E2,6.3661346E2],"tree_param":{"num_deleted":"0","num_feature":"16","num_nodes":"3","size_leaf_vector":"1"}},{"base_weights":[1.15952695E-4,-3.7548906E-1,3.61615E-1,-6.4345056E-1,2.2935686E-1,-3.242471E-2,1.1552099E0,-4.7176594E-1,-3.2504536E-2,5.139859E-1,-3.3210933E-1,1.5050666E-1,1.3009167E0,2.8632304E-2,-3.0150086E-2,-9.127523E-2,1.2146623E0,7.3644084E-1,-6.0727435E-1,-3.102154E-2,1.2385422E0,4.8350772E-1,1.4151723E0,-5.2608025E-1,1.0143206E0,-2.2403225E-2,1.3199697E0,6.6591725E-2,-2.4294464E-2,-3.1665333E-2,-4.176271E-3,8.007359E-2,-2.2797963E-2,-3.0264953E-2,1.4080487E0,1.470373E0,3.855074E-1,-3.175213E-2,5.663543E-3,-1.1976822E-2,6.872367E-2,3.29716E-2,8.141877E-2,7.487328E-2,1.8483924E-2,7.6106295E-2,-5.572084E-3,-1.4787196E-2,6.7801364E-2],"categories":[],"categories_nodes":[],"categories_segments":[],"categories_sizes":[],"default_left":[0,0,0,0,0,0,0,0,0,0,0,0,0,0,0,0,0,0,0,0,0,0,0,0,0,0,0,0,0,0,0,0,0,0,0,0,0,0,0,0,0,0,0,0,0,0,0,0,0],"id":8,"left_children":[1,3,5,7,9,-1,11,13,-1,15,17,19,21,-1,-1,23,25,27,29,-1,31,33,35,37,39,-1,41,-1,-1,-1,-1,-1,-1,-1,43,45,47,-1,-1,-1,-1,-1,-1,-1,-1,-1,-1,-1,-1],"loss_changes":[1.1773442E2,6.907002E1,3.5493774E2,2.9556274E-2,2.1152643E1,0E0,3.608011E1,2.3503592E0,0E0,3.7226746E1,1.3612304E1,2.804329E1,1.9515228E1,0E0,0E0,2.3553541E1,7.7059784E0,7.6489205E0,4.4003963E-1,0E0,9.2284355E0,2.9081814E1,1.018927E1,2.5121746E0,6.5873775E0,0E0,6.762085E0,0E0,0E0,0E0,0E0,0E0,0E0,0E0,8.824215E-1,1.4844086E1,7.6635666E0,0E0,0E0,0E0,0E0,0E0,0E0,0E0,0E0,0E0,0E0,0E0,0E0],"parents":[2147483647,0,0,1,1,2,2,3,3,4,4,6,6,7,7,9,9,10,10,11,11,12,12,15,15,16,16,17,17,18,18,20,20,21,21,22,22,23,23,24,24,26,26,34,34,35,35,36,36],"right_children":[2,4,6,8,10,-1,12,14,-1,16,18,20,22,-1,-1,24,26,28,30,-1,32,34,36,38,40,-1,42,-1,-1,-1,-1,-1,-1,-1,44,46,48,-1,-1,-1,-1,-1,-1,-1,-1,-1,-1,-1,-1],"split_conditions":[-3.8121212E-2,1.5892707E-2,5.7735026E-1,-1.4262118E0,2.0798569E0,-3.242471E-2,-2.582988E-2,-8.221697E-2,-3.2504536E-2,-7.4642056E-1,-1.538911E-1,-3.6631754E-1,-1.1173055E0,2.8632304E-2,-3.0150086E-2,1.226147E0,5.7735026E-1,-7.4642056E-1,1.2976613E0,-3.102154E-2,1.5159732E0,4.453281E-1,1.5981693E0,1.0144715E0,-1.2160637E0,-2.2403225E-2,4.084431E-1,6.6591725E-2,-2.4294464E-2,-3.1665333E-2,-4.176271E-3,8.007359E-2,-2.2797963E-2,-3.0264953E-2,1.5998057E0,1.9577281E0,-2.3602645E-1,-3.175213E-2,5.663543E-3,-1.1976822E-2,6.872367E-2,3.29716E-2,8.141877E-2,7.487328E-2,1.8483924E-2,7.6106295E-2,-5.572084E-3,-1.4787196E-2,6.7801364E-2],"split_indices":[1,2,15,2,2,0,1,4,0,1,9,2,2,0,0,2,15,1,11,0,2,1,8,2,1,0,2,0,0,0,0,0,0,0,14,2,9,0,0,0,0,0,0,0,0,0,0,0,0],"split_type":[0,0,0,0,0,0,0,0,0,0,0,0,0,0,0,0,0,0,0,0,0,0,0,0,0,0,0,0,0,0,0,0,0,0,0,0,0,0,0,0,0,0,0,0,0,0,0,0,0],"sum_hessian":[8.650915E2,4.2424915E2,4.4084238E2,2.9395575E2,1.3029341E2,1.9404256E2,2.467998E2,1.3628566E1,2.8032718E2,8.6518425E1,4.3774986E1,3.151624E1,2.1528355E2,1.1458745E0,1.2482691E1,4.6886486E1,3.963194E1,8.620925E0,3.515406E1,1.8697634E1,1.2818607E1,2.704313E1,1.8824043E2,3.4028168E1,1.2858318E1,2.166686E0,3.7465252E1,5.736907E0,2.8840177E0,3.3290234E1,1.8638295E0,1.060263E1,2.2159772E0,1.2576926E1,1.4466205E1,1.7825603E2,9.984396E0,2.9079067E1,4.949102E0,2.9439576E0,9.914361E0,1.2923698E1,2.4541553E1,1.2912172E1,1.5540323E0,1.7264528E2,5.610756E0,6.2749796E0,3.7094169E0],"tree_param":{"num_deleted":"0","num_feature":"16","num_nodes":"49","size_leaf_vector":"1"}},{"base_weights":[9.7783355E-5,1.0559661E0,-3.999777E-1,1.5538675E0,-2.7237278E-1,-5.060659E-1,5.341059E-1,8.254934E-2,1.2914668E0,6.2147673E-2,-4.040085E-1,2.2996077E-1,-6.247325E-1,1.1141219E0,-3.1200398E-2,8.138987E-2,-2.8918097E-2,4.414546E-2,-5.5471134E-1,1.3185682E0,-3.190432E-2,-3.2534543E-2,-4.027816E-1,-2.8916335E-2,1.5048171E0,6.992198E-2,-2.9912412E-2,-3.0782862E-2,5.5367287E-2,7.692645E-2,6.74239E-1,-3.191934E-2,1.2306546E0,5.3617465E-3,1.5482109E0,-2.4493305E-2,5.0643213E-2,7.414248E-2,-2.6590923E-2,4.8076226E-3,7.184337E-2,7.9544455E-2,3.4520637E-2],"categories":[],"categories_nodes":[],"categories_segments":[],"categories_sizes":[],"default_left":[0,0,0,0,0,0,0,0,0,0,0,0,0,0,0,0,0,0,0,0,0,0,0,0,0,0,0,0,0,0,0,0,0,0,0,0,0,0,0,0,0,0,0],"id":9,"left_children":[1,3,5,7,9,11,13,-1,15,-1,17,19,21,23,-1,-1,-1,25,27,29,-1,-1,31,-1,33,-1,-1,-1,35,-1,37,-1,39,-1,41,-1,-1,-1,-1,-1,-1,-1,-1],"loss_changes":[3.6614948E2,1.5795062E2,6.2561203E1,2.2865295E0,1.3624849E1,4.949167E1,4.4087105E1,0E0,3.3285797E1,0E0,4.1634893E0,7.565971E1,2.5427246E0,2.956799E1,0E0,0E0,0E0,1.5059601E1,1.7420521E0,3.9871216E0,0E0,0E0,2.1413223E1,0E0,1.9892349E0,0E0,0E0,0E0,3.1532354E0,0E0,1.1323541E1,0E0,1.5224447E0,0E0,1.6075897E-1,0E0,0E0,0E0,0E0,0E0,0E0,0E0,0E0],"parents":[2147483647,0,0,1,1,2,2,3,3,4,4,5,5,6,6,8,8,10,10,11,11,12,12,13,13,17,17,18,18,19,19,22,22,24,24,28,28,30,30,32,32,34,34],"right_children":[2,4,6,8,10,12,14,-1,16,-1,18,20,22,24,-1,-1,-1,26,28,30,-1,-1,32,-1,34,-1,-1,-1,36,-1,38,-1,40,-1,42,-1,-1,-1,-1,-1,-1,-1,-1],"split_conditions":[-7.522427E-1,2.4936476E-4,2.0798569E0,-3.778611E-1,-1.9630877E0,-1.1173055E0,-2.582988E-2,8.254934E-2,-1.0874001E0,6.2147673E-2,-1.2899824E0,-4.8591873E-1,1.6425322E0,5.7735026E-1,-3.1200398E-2,8.138987E-2,-2.8918097E-2,1.430715E-1,7.4910897E-1,-5.209958E-1,-3.190432E-2,-3.2534543E-2,1.223455E0,-2.8916335E-2,-7.4642056E-1,6.992198E-2,-2.9912412E-2,-3.0782862E-2,-9.849817E-1,7.692645E-2,-1.4933105E0,-3.191934E-2,-1.6607044E0,5.3617465E-3,-3.8121212E-2,-2.4493305E-2,5.0643213E-2,7.414248E-2,-2.6590923E-2,4.8076226E-3,7.184337E-2,7.9544455E-2,3.4520637E-2],"split_indices":[1,2,2,2,9,2,1,0,1,0,1,1,8,15,0,0,0,2,7,1,0,0,3,0,1,0,0,0,1,0,2,0,10,0,1,0,0,0,0,0,0,0,0],"split_type":[0,0,0,0,0,0,0,0,0,0,0,0,0,0,0,0,0,0,0,0,0,0,0,0,0,0,0,0,0,0,0,0,0,0,0,0,0,0,0,0,0,0,0],"sum_hessian":[8.6477576E2,2.3717928E2,6.275965E2,1.7239185E2,6.478743E1,5.639988E2,6.3597736E1,1.21960236E2,5.043161E1,4.503457E0,6.0283974E1,7.8175995E1,4.8582275E2,4.2400406E1,2.119733E1,4.285298E1,7.5786266E0,1.534845E1,4.4935524E1,3.4451626E1,4.372437E1,4.3322318E2,5.259958E1,7.8621573E0,3.453825E1,4.5594015E0,1.0789048E1,4.0845936E1,4.089589E0,2.4649122E1,9.802504E0,4.6501434E1,6.0981455E0,1.1446211E0,3.3393627E1,2.9169571E0,1.172632E0,5.7307653E0,4.071738E0,1.163469E0,4.934676E0,3.0996817E1,2.396811E0],"tree_param":{"num_deleted":"0","num_feature":"16","num_nodes":"43","size_leaf_vector":"1"}},{"base_weights":[5.494499E-4,3.1611726E-1,-5.34893E-1,4.7836247E-1,-4.2689273E-1,2.0072983E-1,-6.06743E-1,-3.1507868E-1,7.973394E-1,5.598531E-1,-5.657652E-1,7.5989656E-2,-4.74733E-1,-6.462743E-1,-8.5150324E-2,-6.363533E-1,9.736574E-1,7.142371E-2,1.0312146E0,6.764503E-2,-4.0244612E-1,-5.867933E-1,1.5654184E-1,1.7020437E-1,-3.0721089E-2,6.038663E-3,-3.2494217E-2,-3.0008126E-2,5.437227E-1,6.100068E-3,-3.2288264E-2,2.3646763E-1,7.8098364E-2,-3.19612E-2,1.2321694E0,1.3237244E0,2.3744914E-1,5.508202E-3,-2.6622757E-2,-6.074725E-1,-1.9977221E-1,2.8880125E-2,-1.7310666E-2,4.9817014E-2,-2.2556176E-2,6.952455E-2,-2.3829293E-1,-2.8802712E-2,6.991169E-2,2.0877635E-2,7.961649E-2,7.157283E-2,8.311585E-3,5.595068E-2,-3.2160502E-2,-3.089725E-2,-1.6454656E-2,-2.5604216E-2,2.7750755E-2,1.809176E-2,-2.5889328E-2],"categories":[],"categories_nodes":[],"categories_segments":[],"categories_sizes":[],"default_left":[0,0,0,0,0,0,0,0,0,0,0,0,0,0,0,0,0,0,0,0,0,0,0,0,0,0,0,0,0,0,0,0,0,0,0,0,0,0,0,0,0,0,0,0,0,0,0,0,0,0,0,0,0,0,0,0,0,0,0,0,0],"id":10,"left_children":[1,3,5,7,9,11,13,15,17,19,21,-1,23,25,27,29,31,33,35,-1,37,39,41,43,-1,-1,-1,-1,45,-1,-1,47,-1,-1,49,51,53,-1,-1,55,57,-1,-1,-1,-1,-1,59,-1,-1,-1,-1,-1,-1,-1,-1,-1,-1,-1,-1,-1,-1],"loss_changes":[1.4650267E2,6.596752E1,1.7115211E1,1.136927E2,1.3787138E1,2.6880672E1,5.9895706E0,5.413082E1,5.4251328E1,1.0183407E1,1.4082794E0,0E0,1.9225159E0,8.3262634E-1,7.3882947E0,8.215027E-1,1.0987104E1,6.599125E1,5.5860016E1,0E0,4.9031353E-1,5.5435944E-1,8.861094E-1,2.6954694E0,0E0,0E0,0E0,0E0,7.1794806E0,0E0,0E0,1.2888607E1,0E0,0E0,8.242146E0,2.1780334E1,5.224453E1,0E0,0E0,2.8863907E-2,1.644936E0,0E0,0E0,0E0,0E0,0E0,1.2323446E0,0E0,0E0,0E0,0E0,0E0,0E0,0E0,0E0,0E0,0E0,0E0,0E0,0E0,0E0],"parents":[2147483647,0,0,1,1,2,2,3,3,4,4,5,5,6,6,7,7,8,8,9,9,10,10,12,12,13,13,14,14,15,15,16,16,17,17,18,18,20,20,21,21,22,22,23,23,28,28,31,31,34,34,35,35,36,36,39,39,40,40,46,46],"right_children":[2,4,6,8,10,12,14,16,18,20,22,-1,24,26,28,30,32,34,36,-1,38,40,42,44,-1,-1,-1,-1,46,-1,-1,48,-1,-1,50,52,54,-1,-1,56,58,-1,-1,-1,-1,-1,60,-1,-1,-1,-1,-1,-1,-1,-1,-1,-1,-1,-1,-1,-1],"split_conditions":[2.1938124E-1,7.8113616E-1,-1.1173055E0,-9.902832E-1,-1.2160637E0,4.453281E-1,2.0798569E0,2.4936476E-4,-7.5597155E-1,1.8970852E0,1.7169055E0,7.5989656E-2,7.079013E-1,-1.291578E0,5.7735026E-1,-1.1744261E0,-1.2899824E0,-5.209958E-1,-2.1365352E-1,6.764503E-2,-1.6607044E0,1.9991928E-1,4.14808E-3,-1.4933105E0,-3.0721089E-2,6.038663E-3,-3.2494217E-2,-3.0008126E-2,1.1919084E0,6.100068E-3,-3.2288264E-2,1.430715E-1,7.8098364E-2,-3.19612E-2,-4.8591873E-1,4.084431E-1,-3.6631754E-1,5.508202E-3,-2.6622757E-2,1.2335802E0,1.6055624E0,2.8880125E-2,-1.7310666E-2,4.9817014E-2,-2.2556176E-2,6.952455E-2,-2.3602645E-1,-2.8802712E-2,6.991169E-2,2.0877635E-2,7.961649E-2,7.157283E-2,8.311585E-3,5.595068E-2,-3.2160502E-2,-3.089725E-2,-1.6454656E-2,-2.5604216E-2,2.7750755E-2,1.809176E-2,-2.5889328E-2],"split_indices":[1,2,2,1,1,1,2,2,2,2,3,0,1,8,15,2,1,1,1,0,10,1,10,2,0,0,0,0,1,0,0,2,0,0,1,2,2,0,0,10,2,0,0,0,0,0,9,0,0,0,0,0,0,0,0,0,0,0,0,0,0],"split_type":[0,0,0,0,0,0,0,0,0,0,0,0,0,0,0,0,0,0,0,0,0,0,0,0,0,0,0,0,0,0,0,0,0,0,0,0,0,0,0,0,0,0,0,0,0,0,0,0,0,0,0,0,0,0,0,0,0,0,0,0,0],"sum_hessian":[8.650412E2,5.445282E2,3.20513E2,4.4722696E2,9.730122E1,2.8360064E1,2.9215292E2,1.2824225E2,3.1898474E2,1.163048E1,8.5670746E1,9.181047E0,1.9179016E1,2.7134845E2,2.0804472E1,1.03056946E2,2.5185297E1,7.804607E1,2.4093866E2,6.153428E0,5.4770513E0,8.342952E1,2.2412224E0,3.3755922E0,1.5803423E1,1.11905E0,2.702294E2,1.1462761E1,9.341712E0,1.1167128E0,1.0194023E2,1.1800483E1,1.3384814E1,4.8687336E1,2.9358732E1,1.7557135E2,6.536731E1,1.1389496E0,4.338102E0,7.865713E1,4.7723927E0,1.1386888E0,1.1025336E0,1.1898999E0,2.1856923E0,4.111589E0,5.230123E0,7.240642E0,4.55984E0,9.662737E0,1.9695993E1,1.6040515E2,1.5166204E1,3.253161E1,3.28357E1,7.4629776E1,4.0273523E0,3.60308E0,1.1693127E0,1.5682247E0,3.6618984E0],"tree_param":{"num_deleted":"0","num_feature":"16","num_nodes":"61","size_leaf_vector":"1"}},{"base_weights":[-7.630156E-4,8.2790084E-2,-3.2564398E-2],"categories":[],"categories_nodes":[],"categories_segments":[],"categories_sizes":[],"default_left":[0,0,0],"id":11,"left_children":[1,-1,-1],"loss_changes":[9.3451184E2,0E0,0E0],"parents":[2147483647,0,0],"right_children":[2,-1,-1],"split_conditions":[5.7735026E-1,8.2790084E-2,-3.2564398E-2],"split_indices":[15,0,0],"split_type":[0,0,0],"sum_hessian":[8.6518567E2,2.4351877E2,6.2166693E2],"tree_param":{"num_deleted":"0","num_feature":"16","num_nodes":"3","size_leaf_vector":"1"}},{"base_weights":[2.0103632E-4,-3.6809924E-1,3.4693983E-1,-6.365849E-1,2.2188847E-1,-3.2073762E-2,1.0816333E0,-4.6201003E-1,-3.2168362E-2,4.9176657E-1,-3.2467955E-1,1.4240713E-1,1.2137531E0,2.8279519E-2,-2.9761229E-2,-3.3503786E-1,9.5502114E-1,7.043347E-1,-5.99988E-1,-3.0724753E-2,1.1558616E0,4.6255645E-1,1.3158929E0,-3.1387676E-2,6.7453396E-1,2.8206915E-1,1.2702862E0,6.272691E-2,-2.3947742E-2,-3.1315167E-2,-4.083972E-3,7.4283265E-2,-2.2653518E-2,-2.9921843E-2,1.313917E0,1.3650057E0,3.7073603E-1,-1.1700893E-2,6.32623E-2,-3.0812869E-2,8.025961E-2,-2.207042E-2,6.911532E-2,6.970031E-2,1.7785102E-2,7.056602E-2,-5.5077393E-3,-1.4540024E-2,6.393499E-2],"categories":[],"categories_nodes":[],"categories_segments":[],"categories_sizes":[],"default_left":[0,0,0,0,0,0,0,0,0,0,0,0,0,0,0,0,0,0,0,0,0,0,0,0,0,0,0,0,0,0,0,0,0,0,0,0,0,0,0,0,0,0,0,0,0,0,0,0,0],"id":12,"left_children":[1,3,5,7,9,-1,11,13,-1,15,17,19,21,-1,-1,23,25,27,29,-1,31,33,35,-1,37,39,41,-1,-1,-1,-1,-1,-1,-1,43,45,47,-1,-1,-1,-1,-1,-1,-1,-1,-1,-1,-1,-1],"loss_changes":[1.1020933E2,6.643169E1,3.2349228E2,4.359436E-2,1.9575075E1,0E0,3.1514404E1,2.2959914E0,0E0,3.4222298E1,1.29190445E1,2.573551E1,1.6557648E1,0E0,0E0,1.0035125E1,1.1732182E1,6.962052E0,4.308653E-1,0E0,8.258566E0,2.6368874E1,8.611176E0,0E0,4.47836E0,2.4126429E1,7.996544E0,0E0,0E0,0E0,0E0,0E0,0E0,0E0,7.3402786E-1,1.28862E1,7.0239E0,0E0,0E0,0E0,0E0,0E0,0E0,0E0,0E0,0E0,0E0,0E0,0E0],"parents":[2147483647,0,0,1,1,2,2,3,3,4,4,6,6,7,7,9,9,10,10,11,11,12,12,15,15,16,16,17,17,18,18,20,20,21,21,22,22,24,24,25,25,26,26,34,34,35,35,36,36],"right_children":[2,4,6,8,10,-1,12,14,-1,16,18,20,22,-1,-1,24,26,28,30,-1,32,34,36,-1,38,40,42,-1,-1,-1,-1,-1,-1,-1,44,46,48,-1,-1,-1,-1,-1,-1,-1,-1,-1,-1,-1,-1],"split_conditions":[-3.8121212E-2,1.5892707E-2,5.7735026E-1,-1.4262118E0,2.0798569E0,-3.2073762E-2,-2.582988E-2,-8.221697E-2,-3.2168362E-2,-9.434165E-1,-1.538911E-1,-3.6631754E-1,-1.1173055E0,2.8279519E-2,-2.9761229E-2,1.226147E0,4.084431E-1,-7.4642056E-1,1.2976613E0,-3.0724753E-2,1.5159732E0,4.453281E-1,1.5981693E0,-3.1387676E-2,-1.2160637E0,-4.8591873E-1,5.7735026E-1,6.272691E-2,-2.3947742E-2,-3.1315167E-2,-4.083972E-3,7.4283265E-2,-2.2653518E-2,-2.9921843E-2,1.5998057E0,1.9577281E0,-2.3602645E-1,-1.1700893E-2,6.32623E-2,-3.0812869E-2,8.025961E-2,-2.207042E-2,6.911532E-2,6.970031E-2,1.7785102E-2,7.056602E-2,-5.5077393E-3,-1.4540024E-2,6.393499E-2],"split_indices":[1,2,15,2,2,0,1,4,0,1,9,2,2,0,0,2,2,1,11,0,2,1,8,0,1,1,15,0,0,0,0,0,0,0,14,2,9,0,0,0,0,0,0,0,0,0,0,0,0],"split_type":[0,0,0,0,0,0,0,0,0,0,0,0,0,0,0,0,0,0,0,0,0,0,0,0,0,0,0,0,0,0,0,0,0,0,0,0,0,0,0,0,0,0,0,0,0,0,0,0,0],"sum_hessian":[8.6100616E2,4.1749167E2,4.4351447E2,2.868678E2,1.3062387E2,1.8915837E2,2.543561E2,1.3313098E1,2.7355472E2,8.7512985E1,4.3110893E1,3.162378E1,2.2273232E2,1.1553279E0,1.215777E1,3.1524921E1,5.5988064E1,8.770657E0,3.4340237E1,1.8328634E1,1.3295145E1,2.7321623E1,1.9541069E2,2.4732243E1,6.792679E0,1.8465998E1,3.7522064E1,5.9457855E0,2.824871E0,3.248268E1,1.8575574E0,1.1097053E1,2.198093E0,1.22955675E1,1.5026054E1,1.8533595E2,1.00747385E1,2.9142375E0,3.8784413E0,1.1316779E1,7.1492195E0,2.124146E0,3.539792E1,1.3447313E1,1.5787414E0,1.7973618E2,5.599769E0,6.221509E0,3.8532295E0],"tree_param":{"num_deleted":"0","num_feature":"16","num_nodes":"49","size_leaf_vector":"1"}},{"base_weights":[1.2647588E-4,9.9368584E-1,-3.927445E-1,1.4427652E0,-2.6656672E-1,-4.9849004E-1,5.09385E-1,7.649605E-2,1.2054491E0,5.8627244E-2,-3.971602E-1,2.215352E-1,-6.1765826E-1,1.0467402E0,-3.087229E-2,7.5332776E-2,-2.8596297E-2,4.3249656E-2,-5.475645E-1,1.2315772E0,-3.1563938E-2,-3.2195725E-2,-3.9465365E-1,-2.8529568E-2,1.397812E0,6.562569E-2,-2.9575566E-2,-3.0461201E-2,6.024824E-2,7.1382165E-2,6.4285016E-1,-3.156556E-2,1.1618336E0,5.11931E-3,1.4367071E0,-2.4216004E-2,4.9709637E-2,7.012423E-2,-2.646702E-2,6.7742966E-2,4.3173763E-3,7.374278E-2,3.2744385E-2],"categories":[],"categories_nodes":[],"categories_segments":[],"categories_sizes":[],"default_left":[0,0,0,0,0,0,0,0,0,0,0,0,0,0,0,0,0,0,0,0,0,0,0,0,0,0,0,0,0,0,0,0,0,0,0,0,0,0,0,0,0,0,0],"id":13,"left_children":[1,3,5,7,9,11,13,-1,15,-1,17,19,21,23,-1,-1,-1,25,27,29,-1,-1,31,-1,33,-1,-1,-1,35,-1,37,-1,39,-1,41,-1,-1,-1,-1,-1,-1,-1,-1],"loss_changes":[3.3661548E2,1.386848E2,5.920845E1,1.885437E0,1.2690083E1,4.764334E1,4.0206818E1,0E0,2.9316475E1,0E0,4.0232353E0,6.913459E1,2.5289307E0,2.6126747E1,0E0,0E0,0E0,1.3907205E1,1.7262726E0,3.3148994E0,0E0,0E0,2.0127405E1,0E0,1.7142944E0,0E0,0E0,0E0,3.0561047E0,0E0,1.0519535E1,0E0,1.3986292E0,0E0,1.0155487E-1,0E0,0E0,0E0,0E0,0E0,0E0,0E0,0E0],"parents":[2147483647,0,0,1,1,2,2,3,3,4,4,5,5,6,6,8,8,10,10,11,11,12,12,13,13,17,17,18,18,19,19,22,22,24,24,28,28,30,30,32,32,34,34],"right_children":[2,4,6,8,10,12,14,-1,16,-1,18,20,22,24,-1,-1,-1,26,28,30,-1,-1,32,-1,34,-1,-1,-1,36,-1,38,-1,40,-1,42,-1,-1,-1,-1,-1,-1,-1,-1],"split_conditions":[-7.522427E-1,2.4936476E-4,2.0798569E0,-3.778611E-1,-1.9630877E0,-1.1173055E0,-2.582988E-2,7.649605E-2,-1.0874001E0,5.8627244E-2,-1.2899824E0,-4.8591873E-1,1.6425322E0,5.7735026E-1,-3.087229E-2,7.5332776E-2,-2.8596297E-2,1.430715E-1,7.4910897E-1,-5.209958E-1,-3.1563938E-2,-3.2195725E-2,1.223455E0,-2.8529568E-2,-7.4642056E-1,6.562569E-2,-2.9575566E-2,-3.0461201E-2,-9.849817E-1,7.1382165E-2,-1.4933105E0,-3.156556E-2,-8.873164E-1,5.11931E-3,-3.8121212E-2,-2.4216004E-2,4.9709637E-2,7.012423E-2,-2.646702E-2,6.7742966E-2,4.3173763E-3,7.374278E-2,3.2744385E-2],"split_indices":[1,2,2,2,9,2,1,0,1,0,1,1,8,15,0,0,0,2,7,1,0,0,3,0,1,0,0,0,1,0,2,0,11,0,1,0,0,0,0,0,0,0,0],"split_type":[0,0,0,0,0,0,0,0,0,0,0,0,0,0,0,0,0,0,0,0,0,0,0,0,0,0,0,0,0,0,0,0,0,0,0,0,0,0,0,0,0,0,0],"sum_hessian":[8.603635E2,2.4336676E2,6.169968E2,1.7932214E2,6.404462E1,5.526624E2,6.433438E1,1.2717107E2,5.215107E1,4.66448E0,5.9380135E1,7.835788E1,4.7430453E2,4.360934E1,2.0725042E1,4.472412E1,7.4269457E0,1.5297845E1,4.408229E1,3.566885E1,4.2689026E1,4.2265436E2,5.1650173E1,7.6663613E0,3.5942978E1,4.7440143E0,1.0553831E1,4.002013E1,4.0621605E0,2.5688679E1,9.980172E0,4.5349384E1,6.3007884E0,1.1536099E0,3.4789368E1,2.8700845E0,1.1920758E0,5.936547E0,4.0436254E0,5.1217794E0,1.1790091E0,3.232562E1,2.463749E0],"tree_param":{"num_deleted":"0","num_feature":"16","num_nodes":"43","size_leaf_vector":"1"}},{"base_weights":[8.5556717E-4,3.0405486E-1,-5.2727693E-1,4.5767885E-1,-4.189707E-1,1.9457453E-1,-5.994941E-1,-3.0821648E-1,7.550475E-1,5.3699636E-1,-5.580349E-1,7.082059E-2,-4.6676806E-1,-6.393966E-1,-8.250078E-2,-6.2921166E-1,9.1902184E-1,6.9460675E-2,9.694517E-1,6.366905E-2,-3.9611804E-1,-5.7932496E-1,1.5790582E-1,1.6987461E-1,-3.038094E-2,6.1294404E-3,-3.215359E-2,-2.9643282E-2,5.1880777E-1,6.222887E-3,-3.1939868E-2,2.2704455E-1,7.260699E-2,-3.16142E-2,1.1535033E0,1.1658195E0,-2.759783E-2,5.339055E-3,-2.630111E-2,-6.0022014E-1,-1.9338097E-1,2.877967E-2,-1.7205825E-2,4.839848E-2,-2.2295343E-2,6.563809E-2,-2.3743048E-1,-2.8500346E-2,6.561067E-2,1.9980298E-2,7.387766E-2,6.6597186E-2,3.0128999E-2,7.895921E-2,-3.147207E-2,-3.0538991E-2,-1.613927E-2,-2.5254974E-2,2.697411E-2,1.7198194E-2,-2.5674954E-2],"categories":[],"categories_nodes":[],"categories_segments":[],"categories_sizes":[],"default_left":[0,0,0,0,0,0,0,0,0,0,0,0,0,0,0,0,0,0,0,0,0,0,0,0,0,0,0,0,0,0,0,0,0,0,0,0,0,0,0,0,0,0,0,0,0,0,0,0,0,0,0,0,0,0,0,0,0,0,0,0,0],"id":14,"left_children":[1,3,5,7,9,11,13,15,17,19,21,-1,23,25,27,29,31,33,35,-1,37,39,41,43,-1,-1,-1,-1,45,-1,-1,47,-1,-1,49,51,53,-1,-1,55,57,-1,-1,-1,-1,-1,59,-1,-1,-1,-1,-1,-1,-1,-1,-1,-1,-1,-1,-1,-1],"loss_changes":[1.3822467E2,6.110254E1,1.652848E1,1.0335024E2,1.3144419E1,2.4407341E1,5.85627E0,5.074063E1,4.791458E1,9.285904E0,1.3846512E0,0E0,1.8804078E0,8.2310486E-1,6.958406E0,8.129883E-1,9.559528E0,6.070531E1,4.870186E1,0E0,4.7425497E-1,5.5008125E-1,8.765936E-1,2.5802014E0,0E0,0E0,0E0,0E0,6.605754E0,0E0,0E0,1.1863043E1,0E0,0E0,7.064827E0,1.8631714E1,4.1492622E1,0E0,0E0,3.1024933E-2,1.578723E0,0E0,0E0,0E0,0E0,0E0,1.1742835E0,0E0,0E0,0E0,0E0,0E0,0E0,0E0,0E0,0E0,0E0,0E0,0E0,0E0,0E0],"parents":[2147483647,0,0,1,1,2,2,3,3,4,4,5,5,6,6,7,7,8,8,9,9,10,10,12,12,13,13,14,14,15,15,16,16,17,17,18,18,20,20,21,21,22,22,23,23,28,28,31,31,34,34,35,35,36,36,39,39,40,40,46,46],"right_children":[2,4,6,8,10,12,14,16,18,20,22,-1,24,26,28,30,32,34,36,-1,38,40,42,44,-1,-1,-1,-1,46,-1,-1,48,-1,-1,50,52,54,-1,-1,56,58,-1,-1,-1,-1,-1,60,-1,-1,-1,-1,-1,-1,-1,-1,-1,-1,-1,-1,-1,-1],"split_conditions":[2.1938124E-1,7.8113616E-1,-1.1173055E0,-9.902832E-1,-1.2160637E0,4.453281E-1,2.0798569E0,2.4936476E-4,-7.5597155E-1,1.8970852E0,1.7169055E0,7.082059E-2,7.079013E-1,-1.291578E0,5.7735026E-1,-1.1744261E0,-1.2899824E0,-5.209958E-1,-2.582988E-2,6.366905E-2,-1.6607044E0,1.9991928E-1,8.719948E-1,-1.4933105E0,-3.038094E-2,6.1294404E-3,-3.215359E-2,-2.9643282E-2,1.1919084E0,6.222887E-3,-3.1939868E-2,1.430715E-1,7.260699E-2,-3.16142E-2,-4.8591873E-1,1.5892707E-2,-7.476156E-1,5.339055E-3,-2.630111E-2,1.2335802E0,1.6055624E0,2.877967E-2,-1.7205825E-2,4.839848E-2,-2.2295343E-2,6.563809E-2,-2.3602645E-1,-2.8500346E-2,6.561067E-2,1.9980298E-2,7.387766E-2,6.6597186E-2,3.0128999E-2,7.895921E-2,-3.147207E-2,-3.0538991E-2,-1.613927E-2,-2.5254974E-2,2.697411E-2,1.7198194E-2,-2.5674954E-2],"split_indices":[1,2,2,1,1,1,2,2,2,2,3,0,1,8,15,2,1,1,1,0,10,1,7,2,0,0,0,0,1,0,0,2,0,0,1,2,2,0,0,10,2,0,0,0,0,0,9,0,0,0,0,0,0,0,0,0,0,0,0,0,0],"split_type":[0,0,0,0,0,0,0,0,0,0,0,0,0,0,0,0,0,0,0,0,0,0,0,0,0,0,0,0,0,0,0,0,0,0,0,0,0,0,0,0,0,0,0,0,0,0,0,0,0,0,0,0,0,0,0,0,0,0,0,0,0],"sum_hessian":[8.6120483E2,5.4737994E2,3.138249E2,4.517598E2,9.562012E1,2.8386944E1,2.8543796E2,1.2633584E2,3.2542395E2,1.1779943E1,8.384018E1,9.568087E0,1.8818857E1,2.6476605E2,2.0671911E1,1.005289E2,2.5806942E1,7.7840935E1,2.4758302E2,6.380219E0,5.3997245E0,8.160432E1,2.2358594E0,3.3718953E0,1.5446962E1,1.1155897E0,2.6365045E2,1.1189114E1,9.482798E0,1.112031E0,9.941687E1,1.1850757E1,1.3956184E1,4.750546E1,3.0335472E1,2.0670369E2,4.0879326E1,1.145016E0,4.254709E0,7.6886444E1,4.717872E0,1.1404467E0,1.0954126E0,1.2194576E0,2.1524377E0,4.2670393E0,5.2157583E0,7.1060934E0,4.7446632E0,9.790705E0,2.0544767E1,1.5856972E2,4.8133984E1,1.0696977E1,3.018235E1,7.290984E1,3.976602E0,3.5280328E0,1.1898392E0,1.6000829E0,3.6156754E0],"tree_param":{"num_deleted":"0","num_feature":"16","num_nodes":"61","size_leaf_vector":"1"}},{"base_weights":[-1.183533E-3,7.652929E-2,-3.2228094E-2],"categories":[],"categories_nodes":[],"categories_segments":[],"categories_sizes":[],"default_left":[0,0,0],"id":15,"left_children":[1,-1,-1],"loss_changes":[8.5026044E2,0E0,0E0],"parents":[2147483647,0,0],"right_children":[2,-1,-1],"split_conditions":[5.7735026E-1,7.652929E-2,-3.2228094E-2],"split_indices":[15,0,0],"split_type":[0,0,0],"sum_hessian":[8.6076324E2,2.5419388E2,6.065694E2],"tree_param":{"num_deleted":"0","num_feature":"16","num_nodes":"3","size_leaf_vector":"1"}},{"base_weights":[3.0916714E-4,-3.1761114E-2,1.9063084E-1,-3.1593677E-1,1.1376612E0,-5.899012E-1,3.4079537E-1,4.434747E-1,1.22976E0,-6.2998515E-1,-1.07768565E-1,5.5865204E-1,-2.4367389E-1,-2.9586354E-2,1.2321601E0,1.2739096E0,3.570216E-1,-4.5240697E-1,-3.184577E-2,-3.04039E-2,6.6611014E-2,-9.408013E-2,1.2163641E0,1.1452907E0,-3.092719E-2,1.3047698E0,1.712253E-2,1.3158109E0,-1.0863744E-1,-2.8570274E-1,6.0497362E-2,2.7949026E-2,-2.9386476E-2,-3.1282555E-2,3.519472E-2,4.0405463E-2,7.50017E-2,6.5130405E-2,5.650643E-3,6.793811E-2,2.1512663E-2,4.8132833E-2,7.201612E-2,-2.690115E-2,5.033288E-2,-2.7338436E-2,2.9900253E-2],"categories":[],"categories_nodes":[],"categories_segments":[],"categories_sizes":[],"default_left":[0,0,0,0,0,0,0,0,0,0,0,0,0,0,0,0,0,0,0,0,0,0,0,0,0,0,0,0,0,0,0,0,0,0,0,0,0,0,0,0,0,0,0,0,0,0,0],"id":16,"left_children":[1,-1,3,5,7,9,11,13,15,17,19,21,23,-1,25,27,29,31,-1,-1,-1,33,35,37,-1,39,-1,41,43,45,-1,-1,-1,-1,-1,-1,-1,-1,-1,-1,-1,-1,-1,-1,-1,-1,-1],"loss_changes":[1.0371784E2,0E0,3.1692444E2,7.769246E1,1.4170837E1,5.8125534E0,1.6360039E1,2.4018463E1,7.353607E0,5.73349E-2,1.8505627E1,4.009266E1,1.9085148E1,0E0,6.2005615E-1,1.1294922E1,6.4566736E0,2.244058E0,0E0,0E0,0E0,2.065944E1,4.167839E0,1.1278658E0,0E0,1.19529724E-1,0E0,6.832672E0,3.6958032E0,1.9802201E0,0E0,0E0,0E0,0E0,0E0,0E0,0E0,0E0,0E0,0E0,0E0,0E0,0E0,0E0,0E0,0E0,0E0],"parents":[2147483647,0,0,2,2,3,3,4,4,5,5,6,6,7,7,8,8,9,9,10,10,11,11,12,12,14,14,15,15,16,16,17,17,21,21,22,22,23,23,25,25,27,27,28,28,29,29],"right_children":[2,-1,4,6,8,10,12,14,16,18,20,22,24,-1,26,28,30,32,-1,-1,-1,34,36,38,-1,40,-1,42,44,46,-1,-1,-1,-1,-1,-1,-1,-1,-1,-1,-1,-1,-1,-1,-1,-1,-1],"split_conditions":[5.7735026E-1,-3.1761114E-2,-2.582988E-2,1.5892707E-2,-1.1173055E0,-2.1365352E-1,2.0798569E0,4.453281E-1,1.5981693E0,-1.4262118E0,-3.6631754E-1,-7.4642056E-1,-7.4642056E-1,-2.9586354E-2,1.5998057E0,1.9577281E0,-2.3602645E-1,-8.221697E-2,-3.184577E-2,-3.04039E-2,6.6611014E-2,1.0144715E0,-4.8591873E-1,-1.538911E-1,-3.092719E-2,7.4910897E-1,1.712253E-2,-7.476156E-1,1.1919084E0,3.2066414E-1,6.0497362E-2,2.7949026E-2,-2.9386476E-2,-3.1282555E-2,3.519472E-2,4.0405463E-2,7.50017E-2,6.5130405E-2,5.650643E-3,6.793811E-2,2.1512663E-2,4.8132833E-2,7.201612E-2,-2.690115E-2,5.033288E-2,-2.7338436E-2,2.9900253E-2],"split_indices":[15,0,1,2,2,1,2,1,8,2,2,1,1,0,14,2,9,4,0,0,0,2,1,9,0,7,0,2,1,4,0,0,0,0,0,0,0,0,0,0,0,0,0,0,0,0,0],"split_type":[0,0,0,0,0,0,0,0,0,0,0,0,0,0,0,0,0,0,0,0,0,0,0,0,0,0,0,0,0,0,0,0,0,0,0,0,0,0,0,0,0,0,0,0,0,0,0],"sum_hessian":[8.554872E2,1.9661227E2,6.588749E2,4.296963E2,2.2917862E2,3.0328055E2,1.2641572E2,2.75252E1,2.0165343E2,2.7971844E2,2.3562122E1,9.212206E1,3.429365E1,1.2010437E1,1.5514764E1,1.9150598E2,1.014745E1,1.29959E1,2.6672253E2,1.791534E1,5.6467824E0,4.6666183E1,4.545588E1,6.8516846E0,2.7441969E1,1.3912819E1,1.6019449E0,1.8591953E2,5.5864544E0,6.1660438E0,3.9814065E0,1.1641829E0,1.18317175E1,2.8137999E1,1.8528185E1,2.0213528E1,2.5242353E1,5.718342E0,1.1333427E0,1.2582263E1,1.3305558E0,5.0739014E1,1.3518051E2,4.407265E0,1.1791893E0,5.054204E0,1.1118398E0],"tree_param":{"num_deleted":"0","num_feature":"16","num_nodes":"47","size_leaf_vector":"1"}},{"base_weights":[1.13557566E-4,9.3877953E-1,-3.8585365E-1,1.3483306E0,-2.6166567E-1,-4.9122712E-1,4.8697045E-1,1.4275094E0,1.1312952E0,5.5431485E-2,-3.9109617E-1,2.137916E-1,-6.1085415E-1,9.8768914E-1,-3.0555505E-2,2.8770179E-2,7.1744926E-2,7.020247E-2,-2.8279651E-2,4.1821674E-2,-5.409929E-1,1.1559993E0,-3.1235112E-2,-3.1870093E-2,-3.8687623E-1,-2.8154714E-2,1.3060474E0,6.1843295E-2,-2.9258851E-2,-3.0165663E-2,6.395683E-2,6.663834E-2,6.142439E-1,-3.12264E-2,1.1004658E0,4.8877136E-3,1.3413607E0,-2.3963934E-2,4.8729382E-2,6.657846E-2,-2.634036E-2,6.3900314E-2,4.1920184E-3,6.8803914E-2,3.1081516E-2],"categories":[],"categories_nodes":[],"categories_segments":[],"categories_sizes":[],"default_left":[0,0,0,0,0,0,0,0,0,0,0,0,0,0,0,0,0,0,0,0,0,0,0,0,0,0,0,0,0,0,0,0,0,0,0,0,0,0,0,0,0,0,0,0,0],"id":17,"left_children":[1,3,5,7,9,11,13,15,17,-1,19,21,23,25,-1,-1,-1,-1,-1,27,29,31,-1,-1,33,-1,35,-1,-1,-1,37,-1,39,-1,41,-1,43,-1,-1,-1,-1,-1,-1,-1,-1],"loss_changes":[3.1026898E2,1.2303514E2,5.605416E1,1.5852051E0,1.1840227E1,4.584169E1,3.6823597E1,9.399414E-3,2.6063187E1,0E0,3.8839502E0,6.34229E1,2.5101776E0,2.326131E1,0E0,0E0,0E0,0E0,0E0,1.2886341E1,1.7076292E0,2.793785E0,0E0,0E0,1.8952337E1,0E0,1.4969559E0,0E0,0E0,0E0,2.9597654E0,0E0,9.815542E0,0E0,1.2431335E0,0E0,6.896973E-2,0E0,0E0,0E0,0E0,0E0,0E0,0E0,0E0],"parents":[2147483647,0,0,1,1,2,2,3,3,4,4,5,5,6,6,7,7,8,8,10,10,11,11,12,12,13,13,19,19,20,20,21,21,24,24,26,26,30,30,32,32,34,34,36,36],"right_children":[2,4,6,8,10,12,14,16,18,-1,20,22,24,26,-1,-1,-1,-1,-1,28,30,32,-1,-1,34,-1,36,-1,-1,-1,38,-1,40,-1,42,-1,44,-1,-1,-1,-1,-1,-1,-1,-1],"split_conditions":[-7.522427E-1,2.4936476E-4,2.0798569E0,-3.778611E-1,-1.9630877E0,-1.1173055E0,-2.582988E-2,-1.4933105E0,-1.0874001E0,5.5431485E-2,-1.2899824E0,-4.8591873E-1,1.6425322E0,5.7735026E-1,-3.0555505E-2,2.8770179E-2,7.1744926E-2,7.020247E-2,-2.8279651E-2,1.430715E-1,7.4910897E-1,-5.209958E-1,-3.1235112E-2,-3.1870093E-2,1.223455E0,-2.8154714E-2,-7.4642056E-1,6.1843295E-2,-2.9258851E-2,-3.0165663E-2,-9.849817E-1,6.663834E-2,-1.4933105E0,-3.12264E-2,-8.873164E-1,4.8877136E-3,-3.8121212E-2,-2.3963934E-2,4.8729382E-2,6.657846E-2,-2.634036E-2,6.3900314E-2,4.1920184E-3,6.8803914E-2,3.1081516E-2],"split_indices":[1,2,2,2,9,2,1,2,1,0,1,1,8,15,0,0,0,0,0,2,7,1,0,0,3,0,1,0,0,0,1,0,2,0,11,0,1,0,0,0,0,0,0,0,0],"split_type":[0,0,0,0,0,0,0,0,0,0,0,0,0,0,0,0,0,0,0,0,0,0,0,0,0,0,0,0,0,0,0,0,0,0,0,0,0,0,0,0,0,0,0,0,0],"sum_hessian":[8.5440063E2,2.4853508E2,6.0586554E2,1.8522083E2,6.331425E1,5.4099054E2,6.487499E1,1.3162436E2,5.359647E1,4.8112764E0,5.850297E1,7.836449E1,4.6262607E2,4.4626213E1,2.0248777E1,1.8096379E0,1.2981471E2,4.632316E1,7.2733116E0,1.5232083E1,4.327089E1,3.6721836E1,4.164265E1,4.119524E2,5.0673676E1,7.469947E0,3.7156265E1,4.906926E0,1.0325157E1,3.9232014E1,4.038876E0,2.658682E1,1.0135014E1,4.4192566E1,6.4811106E0,1.1620835E0,3.5994183E1,2.8264477E0,1.2124283E0,6.1204233E0,4.0145907E0,5.2986608E0,1.1824497E0,3.3467857E1,2.5263236E0],"tree_param":{"num_deleted":"0","num_feature":"16","num_nodes":"45","size_leaf_vector":"1"}},{"base_weights":[1.2327565E-3,2.9309425E-1,-5.199468E-1,4.3905386E-1,-4.1139114E-1,1.8888353E-1,-5.9250087E-1,-3.0168357E-1,7.174807E-1,5.138831E-1,-5.504573E-1,6.6358656E-2,-4.5891914E-1,-6.327741E-1,-7.998665E-2,-6.2230957E-1,8.706287E-1,6.767392E-2,9.1525024E-1,5.9902698E-2,-3.8979867E-1,-5.7201505E-1,1.5870975E-1,1.6971605E-1,-3.004978E-2,6.228053E-3,-3.1826027E-2,-2.9288385E-2,4.9574777E-1,6.3541993E-3,-3.1604253E-2,2.1826121E-1,6.789964E-2,-3.1279255E-2,1.0846993E0,1.1563755E0,2.2123744E-1,5.1805708E-3,-2.5982073E-2,-3.1512678E-2,-3.9942777E-1,2.8293913E-2,-1.6964111E-2,4.706667E-2,-2.2034816E-2,6.2188506E-2,-2.365792E-1,-2.8200177E-2,6.1825145E-2,1.9146565E-2,6.8984106E-2,6.228542E-2,7.261065E-3,5.0709363E-2,-3.1705793E-2,-2.3770083E-2,2.7759869E-2,1.6341953E-2,-2.5460733E-2],"categories":[],"categories_nodes":[],"categories_segments":[],"categories_sizes":[],"default_left":[0,0,0,0,0,0,0,0,0,0,0,0,0,0,0,0,0,0,0,0,0,0,0,0,0,0,0,0,0,0,0,0,0,0,0,0,0,0,0,0,0,0,0,0,0,0,0,0,0,0,0,0,0,0,0,0,0,0,0],"id":18,"left_children":[1,3,5,7,9,11,13,15,17,19,21,-1,23,25,27,29,31,33,35,-1,37,39,41,43,-1,-1,-1,-1,45,-1,-1,47,-1,-1,49,51,53,-1,-1,-1,55,-1,-1,-1,-1,-1,57,-1,-1,-1,-1,-1,-1,-1,-1,-1,-1,-1,-1],"loss_changes":[1.30508E2,5.673293E1,1.5951431E1,9.427703E1,1.2495045E1,2.2255974E1,5.721222E0,4.7638252E1,4.2574768E1,8.453697E0,1.3595333E0,0E0,1.8393402E0,8.1448364E-1,6.5561876E0,8.053665E-1,8.391697E0,5.6021736E1,4.2296097E1,0E0,4.587677E-1,5.599842E-1,8.4716344E-1,2.47109E0,0E0,0E0,0E0,0E0,6.103347E0,0E0,0E0,1.0953991E1,0E0,0E0,6.1338882E0,1.6843994E1,4.5951843E1,0E0,0E0,0E0,1.9397593E0,0E0,0E0,0E0,0E0,0E0,1.1185906E0,0E0,0E0,0E0,0E0,0E0,0E0,0E0,0E0,0E0,0E0,0E0,0E0],"parents":[2147483647,0,0,1,1,2,2,3,3,4,4,5,5,6,6,7,7,8,8,9,9,10,10,12,12,13,13,14,14,15,15,16,16,17,17,18,18,20,20,21,21,22,22,23,23,28,28,31,31,34,34,35,35,36,36,40,40,46,46],"right_children":[2,4,6,8,10,12,14,16,18,20,22,-1,24,26,28,30,32,34,36,-1,38,40,42,44,-1,-1,-1,-1,46,-1,-1,48,-1,-1,50,52,54,-1,-1,-1,56,-1,-1,-1,-1,-1,58,-1,-1,-1,-1,-1,-1,-1,-1,-1,-1,-1,-1],"split_conditions":[2.1938124E-1,7.8113616E-1,-1.1173055E0,-9.902832E-1,-1.2160637E0,4.453281E-1,2.0798569E0,2.4936476E-4,-7.5597155E-1,1.8970852E0,1.7169055E0,6.6358656E-2,7.079013E-1,-1.291578E0,5.7735026E-1,-1.1744261E0,-1.2899824E0,-5.209958E-1,-2.1365352E-1,5.9902698E-2,-1.6607044E0,8.651992E-1,4.14808E-3,-1.4933105E0,-3.004978E-2,6.228053E-3,-3.1826027E-2,-2.9288385E-2,1.1919084E0,6.3541993E-3,-3.1604253E-2,1.430715E-1,6.789964E-2,-3.1279255E-2,-4.8591873E-1,4.084431E-1,-3.6631754E-1,5.1805708E-3,-2.5982073E-2,-3.1512678E-2,6.3417844E-2,2.8293913E-2,-1.6964111E-2,4.706667E-2,-2.2034816E-2,6.2188506E-2,-2.3602645E-1,-2.8200177E-2,6.1825145E-2,1.9146565E-2,6.8984106E-2,6.228542E-2,7.261065E-3,5.0709363E-2,-3.1705793E-2,-2.3770083E-2,2.7759869E-2,1.6341953E-2,-2.5460733E-2],"split_indices":[1,2,2,1,1,1,2,2,2,2,3,0,1,8,15,2,1,1,1,0,10,13,10,2,0,0,0,0,1,0,0,2,0,0,1,2,2,0,0,0,1,0,0,0,0,0,9,0,0,0,0,0,0,0,0,0,0,0,0],"split_type":[0,0,0,0,0,0,0,0,0,0,0,0,0,0,0,0,0,0,0,0,0,0,0,0,0,0,0,0,0,0,0,0,0,0,0,0,0,0,0,0,0,0,0,0,0,0,0,0,0,0,0,0,0,0,0,0,0,0,0],"sum_hessian":[8.5596967E2,5.489784E2,3.0699124E2,4.550708E2,9.390759E1,2.8356237E1,2.78635E2,1.2429857E2,3.3077222E2,1.1917758E1,8.198983E1,9.904234E0,1.8452003E1,2.5811755E2,2.0517479E1,9.79724E1,2.6326172E1,7.749405E1,2.5327818E2,6.5972676E0,5.320491E0,7.9758675E1,2.2311573E0,3.3656623E0,1.5086341E1,1.1118273E0,2.570057E2,1.0913007E1,9.604472E0,1.1070206E0,9.686537E1,1.1876528E1,1.4449644E1,4.6310925E1,3.118312E1,1.87476E2,6.5802185E1,1.15051E0,4.1699805E0,5.7652416E1,2.2106258E1,1.1525162E0,1.0786412E0,1.247094E0,2.1185684E0,4.4058323E0,5.19864E0,6.968825E0,4.9077034E0,9.908592E0,2.1274529E1,1.7204436E2,1.54316435E1,3.4050343E1,3.1751844E1,2.0941622E1,1.164638E0,1.6304336E0,3.568206E0],"tree_param":{"num_deleted":"0","num_feature":"16","num_nodes":"59","size_leaf_vector":"1"}},{"base_weights":[-1.6576146E-3,7.124941E-2,-3.1907145E-2],"categories":[],"categories_nodes":[],"categories_segments":[],"categories_sizes":[],"default_left":[0,0,0],"id":19,"left_children":[1,-1,-1],"loss_changes":[7.7788934E2,0E0,0E0],"parents":[2147483647,0,0],"right_children":[2,-1,-1],"split_conditions":[5.7735026E-1,7.124941E-2,-3.1907145E-2],"split_indices":[15,0,0],"split_type":[0,0,0],"sum_hessian":[8.5466815E2,2.632868E2,5.9138135E2],"tree_param":{"num_deleted":"0","num_feature":"16","num_nodes":"3","size_leaf_vector":"1"}},{"base_weights":[5.216381E-4,-3.1436853E-2,1.8436216E-1,-3.0953267E-1,1.0723348E0,-5.8327997E-1,3.2854822E-1,4.265924E-1,1.1561824E0,-6.236468E-1,-1.0629396E-1,5.3453755E-1,-2.3780231E-1,-2.9258523E-2,1.1618638E0,1.1962537E0,3.4528026E-1,-4.4340137E-1,-3.15359E-2,-3.0117193E-2,6.2668905E-2,-9.397822E-2,1.1496265E0,1.085916E0,-3.0608758E-2,1.2285836E0,1.6493967E-2,1.2344123E0,-1.05199985E-1,-2.7977613E-1,5.7426926E-2,2.7639208E-2,-2.9041959E-2,-3.101087E-2,3.3354666E-2,3.835791E-2,7.063685E-2,6.1669346E-2,5.3265784E-3,6.387261E-2,2.0750407E-2,4.5348432E-2,6.753854E-2,-2.65975E-2,4.829065E-2,-2.7056798E-2,2.9152596E-2],"categories":[],"categories_nodes":[],"categories_segments":[],"categories_sizes":[],"default_left":[0,0,0,0,0,0,0,0,0,0,0,0,0,0,0,0,0,0,0,0,0,0,0,0,0,0,0,0,0,0,0,0,0,0,0,0,0,0,0,0,0,0,0,0,0,0,0],"id":20,"left_children":[1,-1,3,5,7,9,11,13,15,17,19,21,23,-1,25,27,29,31,-1,-1,-1,33,35,37,-1,39,-1,41,43,45,-1,-1,-1,-1,-1,-1,-1,-1,-1,-1,-1,-1,-1,-1,-1,-1,-1],"loss_changes":[9.839748E1,0E0,2.890219E2,7.4212204E1,1.2257324E1,5.650444E0,1.5043788E1,2.1992199E1,6.3406677E0,6.896973E-2,1.7192804E1,3.6474133E1,1.7907421E1,0E0,5.342922E-1,9.945587E0,5.941082E0,2.1958358E0,0E0,0E0,0E0,1.9418013E1,3.7080193E0,1.0285883E0,0E0,7.825279E-2,0E0,6.094116E0,3.5081897E0,1.9163518E0,0E0,0E0,0E0,0E0,0E0,0E0,0E0,0E0,0E0,0E0,0E0,0E0,0E0,0E0,0E0,0E0,0E0],"parents":[2147483647,0,0,2,2,3,3,4,4,5,5,6,6,7,7,8,8,9,9,10,10,11,11,12,12,14,14,15,15,16,16,17,17,21,21,22,22,23,23,25,25,27,27,28,28,29,29],"right_children":[2,-1,4,6,8,10,12,14,16,18,20,22,24,-1,26,28,30,32,-1,-1,-1,34,36,38,-1,40,-1,42,44,46,-1,-1,-1,-1,-1,-1,-1,-1,-1,-1,-1,-1,-1,-1,-1,-1,-1],"split_conditions":[5.7735026E-1,-3.1436853E-2,-2.582988E-2,1.5892707E-2,-1.1173055E0,-2.1365352E-1,2.0798569E0,4.453281E-1,1.5981693E0,-1.4262118E0,-3.6631754E-1,-7.4642056E-1,-7.4642056E-1,-2.9258523E-2,1.5998057E0,1.9577281E0,-2.3602645E-1,-8.221697E-2,-3.15359E-2,-3.0117193E-2,6.2668905E-2,1.0144715E0,-4.8591873E-1,-1.538911E-1,-3.0608758E-2,7.4910897E-1,1.6493967E-2,2.1938124E-1,1.1919084E0,3.2066414E-1,5.7426926E-2,2.7639208E-2,-2.9041959E-2,-3.101087E-2,3.3354666E-2,3.835791E-2,7.063685E-2,6.1669346E-2,5.3265784E-3,6.387261E-2,2.0750407E-2,4.5348432E-2,6.753854E-2,-2.65975E-2,4.829065E-2,-2.7056798E-2,2.9152596E-2],"split_indices":[15,0,1,2,2,1,2,1,8,2,2,1,1,0,14,2,9,4,0,0,0,2,1,9,0,7,0,1,1,4,0,0,0,0,0,0,0,0,0,0,0,0,0,0,0,0,0],"split_type":[0,0,0,0,0,0,0,0,0,0,0,0,0,0,0,0,0,0,0,0,0,0,0,0,0,0,0,0,0,0,0,0,0,0,0,0,0,0,0,0,0,0,0,0,0,0,0],"sum_hessian":[8.4857465E2,1.9131432E2,6.572604E2,4.2276675E2,2.3449359E2,2.9590463E2,1.2686212E2,2.7648651E1,2.0684494E2,2.7253296E2,2.3371664E1,9.3068146E1,3.3793972E1,1.1722359E1,1.5926292E1,1.9665204E2,1.0192898E1,1.2692998E1,2.5983997E2,1.7532328E1,5.839336E0,4.645069E1,4.661746E1,7.0314264E0,2.6762547E1,1.4302622E1,1.6236701E0,1.9110048E2,5.5515676E0,6.098804E0,4.094094E0,1.1724807E0,1.1520517E1,2.7571548E1,1.887914E1,2.0595186E1,2.6022272E1,5.8858204E0,1.1456059E0,1.295433E1,1.3482915E0,5.2409542E1,1.3869093E2,4.3296995E0,1.2218679E0,4.967062E0,1.1317418E0],"tree_param":{"num_deleted":"0","num_feature":"16","num_nodes":"47","size_leaf_vector":"1"}},{"base_weights":[7.77241E-5,8.9107174E-1,-3.793999E-1,1.2673306E0,-2.5620714E-1,-4.8435077E-1,4.6626046E-1,6.700393E-2,1.0667875E0,5.2623548E-2,-3.846288E-1,2.0660107E-1,-6.043755E-1,9.3504715E-1,-3.024811E-2,6.580751E-2,-2.7968312E-2,4.229955E-2,-5.341986E-1,1.08978E0,-3.0918777E-2,-3.1560093E-2,-3.7942606E-1,-2.7810121E-2,1.2264714E0,5.8493227E-2,-2.8905386E-2,-2.9862655E-2,6.8016775E-2,6.253735E-2,5.8808726E-1,-3.089702E-2,1.0436981E0,4.7098096E-3,1.2587924E0,-2.3690889E-2,4.7702048E-2,6.342996E-2,-2.6211211E-2,3.753876E-3,6.05712E-2,6.455278E-2,2.9457573E-2],"categories":[],"categories_nodes":[],"categories_segments":[],"categories_sizes":[],"default_left":[0,0,0,0,0,0,0,0,0,0,0,0,0,0,0,0,0,0,0,0,0,0,0,0,0,0,0,0,0,0,0,0,0,0,0,0,0,0,0,0,0,0,0],"id":21,"left_children":[1,3,5,7,9,11,13,-1,15,-1,17,19,21,23,-1,-1,-1,25,27,29,-1,-1,31,-1,33,-1,-1,-1,35,-1,37,-1,39,-1,41,-1,-1,-1,-1,-1,-1,-1,-1],"loss_changes":[2.8705713E2,1.0979201E2,5.307026E1,1.3587952E0,1.10698805E1,4.4092255E1,3.3832275E1,0E0,2.3355293E1,0E0,3.7594547E0,5.838645E1,2.4878693E0,2.087851E1,0E0,0E0,0E0,1.1945696E1,1.6890411E0,2.3830528E0,0E0,0E0,1.784156E1,0E0,1.3155365E0,0E0,0E0,0E0,2.8583226E0,0E0,9.1943E0,0E0,1.1509228E0,0E0,6.0764313E-2,0E0,0E0,0E0,0E0,0E0,0E0,0E0,0E0],"parents":[2147483647,0,0,1,1,2,2,3,3,4,4,5,5,6,6,8,8,10,10,11,11,12,12,13,13,17,17,18,18,19,19,22,22,24,24,28,28,30,30,32,32,34,34],"right_children":[2,4,6,8,10,12,14,-1,16,-1,18,20,22,24,-1,-1,-1,26,28,30,-1,-1,32,-1,34,-1,-1,-1,36,-1,38,-1,40,-1,42,-1,-1,-1,-1,-1,-1,-1,-1],"split_conditions":[-7.522427E-1,2.4936476E-4,2.0798569E0,-3.778611E-1,-1.9630877E0,-1.1173055E0,-2.582988E-2,6.700393E-2,-1.0874001E0,5.2623548E-2,-1.2899824E0,-4.8591873E-1,1.6425322E0,5.7735026E-1,-3.024811E-2,6.580751E-2,-2.7968312E-2,1.430715E-1,7.4910897E-1,-5.209958E-1,-3.0918777E-2,-3.1560093E-2,1.223455E0,-2.7810121E-2,-7.4642056E-1,5.8493227E-2,-2.8905386E-2,-2.9862655E-2,-9.849817E-1,6.253735E-2,-1.4933105E0,-3.089702E-2,-1.6607044E0,4.7098096E-3,-3.8121212E-2,-2.3690889E-2,4.7702048E-2,6.342996E-2,-2.6211211E-2,3.753876E-3,6.05712E-2,6.455278E-2,2.9457573E-2],"split_indices":[1,2,2,2,9,2,1,0,1,0,1,1,8,15,0,0,0,2,7,1,0,0,3,0,1,0,0,0,1,0,2,0,10,0,1,0,0,0,0,0,0,0,0],"split_type":[0,0,0,0,0,0,0,0,0,0,0,0,0,0,0,0,0,0,0,0,0,0,0,0,0,0,0,0,0,0,0,0,0,0,0,0,0,0,0,0,0,0,0],"sum_hessian":[8.4699945E2,2.5258789E2,5.9441156E2,1.9012898E2,6.2458904E1,5.291665E2,6.524506E1,1.3534853E2,5.4780457E1,4.938437E0,5.7520466E1,7.821001E1,4.5095648E2,4.547256E1,1.9772505E1,4.7662315E1,7.1181417E0,1.5109494E1,4.2410973E1,3.761755E1,4.0592457E1,4.012941E2,4.9662403E1,7.285142E0,3.8187416E1,5.048468E0,1.0061026E1,3.839871E1,4.0122657E0,2.7349474E1,1.0268074E1,4.3018353E1,6.6440506E0,1.1684487E0,3.701897E1,2.7784057E0,1.23386E0,6.28339E0,3.984684E0,1.1943392E0,5.4497113E0,3.4432064E1,2.586905E0],"tree_param":{"num_deleted":"0","num_feature":"16","num_nodes":"43","size_leaf_vector":"1"}},{"base_weights":[1.5961488E-3,2.8299373E-1,-5.129491E-1,4.2206746E-1,-4.0389827E-1,1.8342161E-1,-5.858021E-1,-2.954576E-1,6.836527E-1,5.0033754E-1,-5.434021E-1,6.247415E-2,-4.5134026E-1,-6.2642884E-1,-7.7686E-2,-6.1563975E-1,8.274935E-1,6.594153E-2,8.6700267E-1,1.1464105E0,-3.82813E-1,-5.6523055E-1,1.5912303E-1,1.6893052E-1,-2.9729543E-2,6.3623535E-3,-3.1512685E-2,-2.8943101E-2,4.744263E-1,6.3967477E-3,-3.1280417E-2,2.1003959E-1,6.382372E-2,-3.0958487E-2,1.0240604E0,1.0300047E0,-1.887248E-2,6.1838116E-2,2.0662773E-2,5.1203696E-3,-2.5651425E-2,-3.1214377E-2,-3.9139855E-1,2.8214652E-2,-1.6905447E-2,4.565564E-2,-2.1766085E-2,5.8837797E-2,-2.3373538E-1,-2.790281E-2,5.8470424E-2,1.8370384E-2,6.4768136E-2,5.8503833E-2,2.7140418E-2,7.3197804E-2,-3.0981824E-2,-2.3379605E-2,2.6886959E-2,1.563074E-2,-2.5185639E-2],"categories":[],"categories_nodes":[],"categories_segments":[],"categories_sizes":[],"default_left":[0,0,0,0,0,0,0,0,0,0,0,0,0,0,0,0,0,0,0,0,0,0,0,0,0,0,0,0,0,0,0,0,0,0,0,0,0,0,0,0,0,0,0,0,0,0,0,0,0,0,0,0,0,0,0,0,0,0,0,0,0],"id":22,"left_children":[1,3,5,7,9,11,13,15,17,19,21,-1,23,25,27,29,31,33,35,37,39,41,43,45,-1,-1,-1,-1,47,-1,-1,49,-1,-1,51,53,55,-1,-1,-1,-1,-1,57,-1,-1,-1,-1,-1,59,-1,-1,-1,-1,-1,-1,-1,-1,-1,-1,-1,-1],"loss_changes":[1.232989E2,5.2758583E1,1.53811035E1,8.6221E1,1.2028777E1,2.0374197E1,5.5825043E0,4.4783897E1,3.8014862E1,7.8437166E0,1.3355141E0,0E0,1.7961328E0,8.0792236E-1,6.17886E0,7.9452896E-1,7.424038E0,5.1849617E1,3.743799E1,1.958847E-3,4.4633216E-1,5.666275E-1,8.411201E-1,2.3577373E0,0E0,0E0,0E0,0E0,5.598048E0,0E0,0E0,1.0142762E1,0E0,0E0,5.386463E0,1.4301758E1,3.765633E1,0E0,0E0,0E0,0E0,0E0,1.8593788E0,0E0,0E0,0E0,0E0,0E0,1.0665809E0,0E0,0E0,0E0,0E0,0E0,0E0,0E0,0E0,0E0,0E0,0E0,0E0],"parents":[2147483647,0,0,1,1,2,2,3,3,4,4,5,5,6,6,7,7,8,8,9,9,10,10,12,12,13,13,14,14,15,15,16,16,17,17,18,18,19,19,20,20,21,21,22,22,23,23,28,28,31,31,34,34,35,35,36,36,42,42,48,48],"right_children":[2,4,6,8,10,12,14,16,18,20,22,-1,24,26,28,30,32,34,36,38,40,42,44,46,-1,-1,-1,-1,48,-1,-1,50,-1,-1,52,54,56,-1,-1,-1,-1,-1,58,-1,-1,-1,-1,-1,60,-1,-1,-1,-1,-1,-1,-1,-1,-1,-1,-1,-1],"split_conditions":[2.1938124E-1,7.8113616E-1,-1.1173055E0,-9.902832E-1,-1.2160637E0,4.453281E-1,2.0798569E0,2.4936476E-4,-7.5597155E-1,1.8970852E0,1.7169055E0,6.247415E-2,7.079013E-1,-1.291578E0,5.7735026E-1,-1.1744261E0,-1.2899824E0,-5.209958E-1,-2.582988E-2,1.5159732E0,-1.6607044E0,8.651992E-1,8.719948E-1,-1.4933105E0,-2.9729543E-2,6.3623535E-3,-3.1512685E-2,-2.8943101E-2,1.1919084E0,6.3967477E-3,-3.1280417E-2,1.430715E-1,6.382372E-2,-3.0958487E-2,-4.8591873E-1,1.5892707E-2,-7.476156E-1,6.1838116E-2,2.0662773E-2,5.1203696E-3,-2.5651425E-2,-3.1214377E-2,6.3417844E-2,2.8214652E-2,-1.6905447E-2,4.565564E-2,-2.1766085E-2,5.8837797E-2,-2.3602645E-1,-2.790281E-2,5.8470424E-2,1.8370384E-2,6.4768136E-2,5.8503833E-2,2.7140418E-2,7.3197804E-2,-3.0981824E-2,-2.3379605E-2,2.6886959E-2,1.563074E-2,-2.5185639E-2],"split_indices":[1,2,2,1,1,1,2,2,2,2,3,0,1,8,15,2,1,1,1,2,10,13,7,2,0,0,0,0,1,0,0,2,0,0,1,2,2,0,0,0,0,0,1,0,0,0,0,0,9,0,0,0,0,0,0,0,0,0,0,0,0],"split_type":[0,0,0,0,0,0,0,0,0,0,0,0,0,0,0,0,0,0,0,0,0,0,0,0,0,0,0,0,0,0,0,0,0,0,0,0,0,0,0,0,0,0,0,0,0,0,0,0,0,0,0,0,0,0,0,0,0,0,0,0,0],"sum_hessian":[8.495574E2,5.4949585E2,3.0006155E2,4.5729395E2,9.220189E1,2.8275005E1,2.7178656E2,1.22138916E2,3.3515503E2,1.1977779E1,8.022411E1,1.019105E1,1.8083956E1,2.5144894E2,2.033761E1,9.539198E1,2.6746935E1,7.702277E1,2.5813223E2,6.745203E0,5.2325764E0,7.799609E1,2.2280173E0,3.3592472E0,1.4724709E1,1.1067023E0,2.5034224E2,1.0635165E1,9.702445E0,1.1053851E0,9.42866E1,1.1878725E1,1.4868211E1,4.5115967E1,3.1906801E1,2.1787947E2,4.0252777E1,5.393606E0,1.3515967E0,1.1523061E0,4.0802703E0,5.6283302E1,2.1712793E1,1.1533444E0,1.0746728E0,1.2762741E0,2.0829732E0,4.539061E0,5.1633844E0,6.82931E0,5.049415E0,1.0016756E1,2.1890045E1,1.6813733E2,4.9742146E1,1.1191836E1,2.906094E1,2.052629E1,1.1865033E0,1.6554134E0,3.5079708E0],"tree_param":{"num_deleted":"0","num_feature":"16","num_nodes":"61","size_leaf_vector":"1"}},{"base_weights":[-2.201179E-3,6.6734694E-2,-3.1599756E-2],"categories":[],"categories_nodes":[],"categories_segments":[],"categories_sizes":[],"default_left":[0,0,0],"id":23,"left_children":[1,-1,-1],"loss_changes":[7.148669E2,0E0,0E0],"parents":[2147483647,0,0],"right_children":[2,-1,-1],"split_conditions":[5.7735026E-1,6.6734694E-2,-3.1599756E-2],"split_indices":[15,0,0],"split_type":[0,0,0],"sum_hessian":[8.470407E2,2.7088992E2,5.7615076E2],"tree_param":{"num_deleted":"0","num_feature":"16","num_nodes":"3","size_leaf_vector":"1"}},{"base_weights":[7.6138845E-4,-3.1125953E-2,1.7858592E-1,-3.0312997E-1,1.0143319E0,-5.766234E-1,3.1670332E-1,6.986916E-1,1.171057E0,-6.1754984E-1,-9.9535994E-2,5.115514E-1,-2.3217306E-1,-3.3238366E-2,1.0279906E0,1.2260324E0,4.0818217E-1,-4.340718E-1,-3.1239117E-2,-2.981334E-2,6.055559E-2,-9.519895E-2,1.0909325E0,1.0327117E0,-3.0301128E-2,4.1564673E-1,1.2169518E0,1.2735147E0,-7.087825E-2,-3.679002E-1,9.817034E-1,2.7348537E-2,-2.8693208E-2,-2.5382718E-2,4.122081E-2,3.640195E-2,6.69751E-2,5.859804E-2,5.013823E-3,-2.7655004E-2,5.8445085E-2,3.3594992E-2,6.312774E-2,6.400464E-2,1.7994976E-2,-2.586396E-2,4.638065E-2,-2.552264E-2,6.9149504E-3,1.639169E-2,5.545498E-2],"categories":[],"categories_nodes":[],"categories_segments":[],"categories_sizes":[],"default_left":[0,0,0,0,0,0,0,0,0,0,0,0,0,0,0,0,0,0,0,0,0,0,0,0,0,0,0,0,0,0,0,0,0,0,0,0,0,0,0,0,0,0,0,0,0,0,0,0,0,0,0],"id":24,"left_children":[1,-1,3,5,7,9,11,13,15,17,19,21,23,-1,25,27,29,31,-1,-1,-1,33,35,37,-1,39,41,43,45,47,49,-1,-1,-1,-1,-1,-1,-1,-1,-1,-1,-1,-1,-1,-1,-1,-1,-1,-1,-1,-1],"loss_changes":[9.3369705E1,0E0,2.6417624E2,7.079553E1,1.1048309E1,5.5886993E0,1.3826393E1,3.753075E1,6.159973E0,8.2206726E-2,1.6382622E1,3.3466415E1,1.6830107E1,0E0,7.1883545E0,9.181793E0,5.7799325E0,2.148287E0,0E0,0E0,0E0,1.8350647E1,3.411171E0,9.455309E-1,0E0,1.3197248E1,4.018402E-1,3.9553833E-1,3.226245E0,4.9640566E-1,2.4227381E-1,0E0,0E0,0E0,0E0,0E0,0E0,0E0,0E0,0E0,0E0,0E0,0E0,0E0,0E0,0E0,0E0,0E0,0E0,0E0,0E0],"parents":[2147483647,0,0,2,2,3,3,4,4,5,5,6,6,7,7,8,8,9,9,10,10,11,11,12,12,14,14,15,15,16,16,17,17,21,21,22,22,23,23,25,25,26,26,27,27,28,28,29,29,30,30],"right_children":[2,-1,4,6,8,10,12,14,16,18,20,22,24,-1,26,28,30,32,-1,-1,-1,34,36,38,-1,40,42,44,46,48,50,-1,-1,-1,-1,-1,-1,-1,-1,-1,-1,-1,-1,-1,-1,-1,-1,-1,-1,-1,-1],"split_conditions":[5.7735026E-1,-3.1125953E-2,-2.582988E-2,1.5892707E-2,-7.476156E-1,-2.1365352E-1,2.0798569E0,2.1938124E-1,1.3901479E0,-1.4262118E0,-3.6631754E-1,-7.4642056E-1,-7.4642056E-1,-3.3238366E-2,4.453281E-1,1.9577281E0,-2.6988563E-1,-8.221697E-2,-3.1239117E-2,-2.981334E-2,6.055559E-2,1.226147E0,-4.8591873E-1,-1.538911E-1,-3.0301128E-2,-1.1173055E0,-1.4933105E0,1.2597331E0,1.1919084E0,2.4488398E-1,-2.3602645E-1,2.7348537E-2,-2.8693208E-2,-2.5382718E-2,4.122081E-2,3.640195E-2,6.69751E-2,5.859804E-2,5.013823E-3,-2.7655004E-2,5.8445085E-2,3.3594992E-2,6.312774E-2,6.400464E-2,1.7994976E-2,-2.586396E-2,4.638065E-2,-2.552264E-2,6.9149504E-3,1.639169E-2,5.545498E-2],"split_indices":[15,0,1,2,2,1,2,1,8,2,2,1,1,0,1,2,9,4,0,0,0,2,1,9,0,2,2,1,1,4,9,0,0,0,0,0,0,0,0,0,0,0,0,0,0,0,0,0,0,0,0],"split_type":[0,0,0,0,0,0,0,0,0,0,0,0,0,0,0,0,0,0,0,0,0,0,0,0,0,0,0,0,0,0,0,0,0,0,0,0,0,0,0,0,0,0,0,0,0,0,0,0,0,0,0],"sum_hessian":[8.404211E2,1.8599657E2,6.544245E2,4.1554544E2,2.3887906E2,2.883739E2,1.27171524E2,8.106806E1,1.57811E2,2.6531934E2,2.3054585E1,9.39041E1,3.3267426E1,1.5572314E1,6.549574E1,1.4663673E2,1.117427E1,1.2375894E1,2.5294344E2,1.7113636E1,5.9409475E0,4.6276863E1,4.7627235E1,7.187344E0,2.6080082E1,1.6199533E1,4.929621E1,1.414751E2,5.161636E0,4.900922E0,6.2733474E0,1.1802603E0,1.1195634E1,3.22572E1,1.4019664E1,2.0958403E1,2.6668835E1,6.0299544E0,1.1573899E0,7.2023935E0,8.99714E0,5.0207844E0,4.427543E1,1.400655E2,1.4095937E0,3.8999867E0,1.2616491E0,3.817468E0,1.0834539E0,1.605639E0,4.6677084E0],"tree_param":{"num_deleted":"0","num_feature":"16","num_nodes":"51","size_leaf_vector":"1"}},{"base_weights":[-1.9511568E-5,8.483545E-1,-3.7326282E-1,1.1969645E0,-2.515494E-1,-4.7777247E-1,4.4736868E-1,1.2643545E0,1.0102261E0,5.0047703E-2,-3.7886307E-1,1.9996335E-1,-5.981614E-1,8.8829464E-1,-2.9949779E-2,2.5609404E-2,6.35471E-2,6.2005676E-2,-2.76624E-2,4.2453744E-2,-5.2794063E-1,1.031323E0,-3.0613447E-2,-3.126295E-2,-3.72306E-1,-2.7473057E-2,1.1569237E0,5.551005E-2,-2.8568143E-2,-5.9165883E-1,7.076108E-2,5.896006E-2,5.640937E-1,-3.05811E-2,9.927018E-1,4.5408355E-3,1.1867979E0,-1.752729E-2,-3.0742332E-2,-2.3441335E-2,4.6610232E-2,6.061808E-2,-2.6079832E-2,3.3685E-3,5.7583053E-2,6.0859986E-2,2.7933538E-2],"categories":[],"categories_nodes":[],"categories_segments":[],"categories_sizes":[],"default_left":[0,0,0,0,0,0,0,0,0,0,0,0,0,0,0,0,0,0,0,0,0,0,0,0,0,0,0,0,0,0,0,0,0,0,0,0,0,0,0,0,0,0,0,0,0,0,0],"id":25,"left_children":[1,3,5,7,9,11,13,15,17,-1,19,21,23,25,-1,-1,-1,-1,-1,27,29,31,-1,-1,33,-1,35,-1,-1,37,39,-1,41,-1,43,-1,45,-1,-1,-1,-1,-1,-1,-1,-1,-1,-1],"loss_changes":[2.6607156E2,9.874083E1,5.0260506E1,1.1781311E0,1.0363506E1,4.23927E1,3.1183975E1,3.9749146E-2,2.107127E1,0E0,3.6377573E0,5.3909325E1,2.461319E0,1.8843586E1,0E0,0E0,0E0,0E0,0E0,1.1100849E1,1.6666479E0,2.0545578E0,0E0,0E0,1.6819258E1,0E0,1.1675873E0,0E0,0E0,2.8324127E-4,2.7565355E0,0E0,8.642137E0,0E0,1.0674062E0,0E0,6.2252045E-2,0E0,0E0,0E0,0E0,0E0,0E0,0E0,0E0,0E0,0E0],"parents":[2147483647,0,0,1,1,2,2,3,3,4,4,5,5,6,6,7,7,8,8,10,10,11,11,12,12,13,13,19,19,20,20,21,21,24,24,26,26,29,29,30,30,32,32,34,34,36,36],"right_children":[2,4,6,8,10,12,14,16,18,-1,20,22,24,26,-1,-1,-1,-1,-1,28,30,32,-1,-1,34,-1,36,-1,-1,38,40,-1,42,-1,44,-1,46,-1,-1,-1,-1,-1,-1,-1,-1,-1,-1],"split_conditions":[-7.522427E-1,2.4936476E-4,2.0798569E0,-3.778611E-1,-1.9630877E0,-1.1173055E0,-2.582988E-2,-1.4933105E0,-1.0874001E0,5.0047703E-2,-1.2899824E0,-4.8591873E-1,1.6425322E0,5.7735026E-1,-2.9949779E-2,2.5609404E-2,6.35471E-2,6.2005676E-2,-2.76624E-2,1.430715E-1,7.4910897E-1,-5.209958E-1,-3.0613447E-2,-3.126295E-2,1.223455E0,-2.7473057E-2,-7.4642056E-1,5.551005E-2,-2.8568143E-2,-7.1849763E-1,-9.849817E-1,5.896006E-2,-1.4933105E0,-3.05811E-2,2.0929445E-1,4.5408355E-3,-3.8121212E-2,-1.752729E-2,-3.0742332E-2,-2.3441335E-2,4.6610232E-2,6.061808E-2,-2.6079832E-2,3.3685E-3,5.7583053E-2,6.0859986E-2,2.7933538E-2],"split_indices":[1,2,2,2,9,2,1,2,1,0,1,1,8,15,0,0,0,0,0,2,7,1,0,0,3,0,1,0,0,4,1,0,2,0,7,0,1,0,0,0,0,0,0,0,0,0,0],"split_type":[0,0,0,0,0,0,0,0,0,0,0,0,0,0,0,0,0,0,0,0,0,0,0,0,0,0,0,0,0,0,0,0,0,0,0,0,0,0,0,0,0,0,0,0,0,0,0],"sum_hessian":[8.382704E2,2.5572958E2,5.8254083E2,1.9411682E2,6.1612766E1,5.17104E2,6.5436806E1,1.3840039E2,5.5716423E1,5.051761E0,5.6561005E1,7.790014E1,4.3920386E2,4.614352E1,1.9293287E1,1.8852968E0,1.3651509E2,4.875456E1,6.961865E0,1.4969646E1,4.159136E1,3.8363487E1,3.953665E1,3.9057523E2,4.8628647E1,7.0996027E0,3.904392E1,5.1691365E0,9.80051E0,3.760132E1,3.990042E0,2.7983028E1,1.0380459E1,4.1844337E1,6.784308E0,1.1743796E0,3.7869537E1,4.7129054E0,3.2888412E1,2.733567E0,1.256475E0,6.4265065E0,3.9539528E0,1.2033274E0,5.580981E0,3.522671E1,2.6428251E0],"tree_param":{"num_deleted":"0","num_feature":"16","num_nodes":"47","size_leaf_vector":"1"}},{"base_weights":[2.0417885E-3,2.7342552E-1,-5.0601083E-1,4.0613988E-1,-3.9645398E-1,1.7835613E-1,-5.7916576E-1,-2.8953236E-1,6.5244144E-1,4.8925143E-1,-5.36514E-1,5.9066713E-2,-4.438883E-1,-6.201557E-1,-7.5521275E-2,-6.091999E-1,7.888768E-1,6.4460374E-2,8.2282686E-1,1.1024313E0,-3.7582013E-1,-5.5863136E-1,1.5962704E-1,1.6828011E-1,-2.9418036E-2,6.5039443E-3,-3.1203378E-2,-2.8607026E-2,4.5467708E-1,6.539532E-3,-3.096956E-2,2.0235136E-1,6.0266424E-2,-3.0646836E-2,9.70248E-1,9.728743E-1,-1.589044E-2,1.9742291E-2,5.955833E-2,5.0696353E-3,-2.5323903E-2,-3.09286E-2,-3.8341597E-1,2.7847875E-2,-1.672467E-2,4.4329867E-2,-2.149848E-2,5.5848777E-2,-2.3086652E-1,-2.760849E-2,5.548365E-2,1.7646369E-2,6.110313E-2,5.19831E-2,5.2678995E-3,7.000173E-2,-3.0720687E-2,-2.2990664E-2,2.6052145E-2,1.4951234E-2,-2.4910023E-2],"categories":[],"categories_nodes":[],"categories_segments":[],"categories_sizes":[],"default_left":[0,0,0,0,0,0,0,0,0,0,0,0,0,0,0,0,0,0,0,0,0,0,0,0,0,0,0,0,0,0,0,0,0,0,0,0,0,0,0,0,0,0,0,0,0,0,0,0,0,0,0,0,0,0,0,0,0,0,0,0,0],"id":26,"left_children":[1,3,5,7,9,11,13,15,17,19,21,-1,23,25,27,29,31,33,35,37,39,41,43,45,-1,-1,-1,-1,47,-1,-1,49,-1,-1,51,53,55,-1,-1,-1,-1,-1,57,-1,-1,-1,-1,-1,59,-1,-1,-1,-1,-1,-1,-1,-1,-1,-1,-1,-1],"loss_changes":[1.163597E2,4.9065517E1,1.4814484E1,7.894313E1,1.1609177E1,1.8711435E1,5.4383926E0,4.2149124E1,3.3984406E1,7.3165407E0,1.3125286E0,0E0,1.7538352E0,8.018646E-1,5.825316E0,7.8839874E-1,6.6131783E0,4.80969E1,3.3155212E1,2.3745537E-2,4.3439305E-1,5.73946E-1,8.193472E-1,2.2506585E0,0E0,0E0,0E0,0E0,5.1521215E0,0E0,0E0,9.415275E0,0E0,0E0,4.7781677E0,1.2833389E1,3.55599E1,0E0,0E0,0E0,0E0,0E0,1.781605E0,0E0,0E0,0E0,0E0,0E0,1.016699E0,0E0,0E0,0E0,0E0,0E0,0E0,0E0,0E0,0E0,0E0,0E0,0E0],"parents":[2147483647,0,0,1,1,2,2,3,3,4,4,5,5,6,6,7,7,8,8,9,9,10,10,12,12,13,13,14,14,15,15,16,16,17,17,18,18,19,19,20,20,21,21,22,22,23,23,28,28,31,31,34,34,35,35,36,36,42,42,48,48],"right_children":[2,4,6,8,10,12,14,16,18,20,22,-1,24,26,28,30,32,34,36,38,40,42,44,46,-1,-1,-1,-1,48,-1,-1,50,-1,-1,52,54,56,-1,-1,-1,-1,-1,58,-1,-1,-1,-1,-1,60,-1,-1,-1,-1,-1,-1,-1,-1,-1,-1,-1,-1],"split_conditions":[2.1938124E-1,7.8113616E-1,-1.1173055E0,-9.902832E-1,-1.2160637E0,4.453281E-1,2.0798569E0,2.4936476E-4,-7.5597155E-1,1.8970852E0,1.7169055E0,5.9066713E-2,7.079013E-1,-1.291578E0,5.7735026E-1,-1.1744261E0,-1.2899824E0,-5.209958E-1,-2.582988E-2,-1.0288546E0,-1.6607044E0,8.651992E-1,8.719948E-1,-1.4933105E0,-2.9418036E-2,6.5039443E-3,-3.1203378E-2,-2.8607026E-2,1.1919084E0,6.539532E-3,-3.096956E-2,1.430715E-1,6.0266424E-2,-3.0646836E-2,-4.8591873E-1,4.084431E-1,-7.476156E-1,1.9742291E-2,5.955833E-2,5.0696353E-3,-2.5323903E-2,-3.09286E-2,6.3417844E-2,2.7847875E-2,-1.672467E-2,4.4329867E-2,-2.149848E-2,5.5848777E-2,-2.3602645E-1,-2.760849E-2,5.548365E-2,1.7646369E-2,6.110313E-2,5.19831E-2,5.2678995E-3,7.000173E-2,-3.0720687E-2,-2.2990664E-2,2.6052145E-2,1.4951234E-2,-2.4910023E-2],"split_indices":[1,2,2,1,1,1,2,2,2,2,3,0,1,8,15,2,1,1,1,3,10,13,7,2,0,0,0,0,1,0,0,2,0,0,1,2,2,0,0,0,0,0,1,0,0,0,0,0,9,0,0,0,0,0,0,0,0,0,0,0,0],"split_type":[0,0,0,0,0,0,0,0,0,0,0,0,0,0,0,0,0,0,0,0,0,0,0,0,0,0,0,0,0,0,0,0,0,0,0,0,0,0,0,0,0,0,0,0,0,0,0,0,0,0,0,0,0,0,0,0,0,0,0,0,0],"sum_hessian":[8.4193365E2,5.4909064E2,2.9284296E2,4.5862338E2,9.046728E1,2.8141367E1,2.647016E2,1.1987214E2,3.3875125E2,1.2012156E1,7.8455124E1,1.0430398E1,1.7710968E1,2.4456589E2,2.0135721E1,9.279922E1,2.7072924E1,7.641836E1,2.623329E2,6.868936E0,5.1432195E0,7.62307E1,2.224426E0,3.3502548E0,1.4360714E1,1.1012945E0,2.4346458E2,1.0356255E1,9.779467E0,1.09993E0,9.169929E1,1.1858067E1,1.5214857E1,4.390622E1,3.251214E1,2.2238756E2,3.994533E1,1.3726857E0,5.4962506E0,1.153646E0,3.9895732E0,5.4914326E1,2.131637E1,1.1624839E0,1.0619421E0,1.3033453E0,2.0469093E0,4.6539717E0,5.125495E0,6.6878963E0,5.1701703E0,1.0115541E1,2.2396599E1,2.0630618E2,1.6081377E1,1.1470486E1,2.8474846E1,2.0109394E1,1.2069747E0,1.6789837E0,3.4465113E0],"tree_param":{"num_deleted":"0","num_feature":"16","num_nodes":"61","size_leaf_vector":"1"}},{"base_weights":[-2.7954958E-3,6.284181E-2,-3.1306606E-2],"categories":[],"categories_nodes":[],"categories_segments":[],"categories_sizes":[],"default_left":[0,0,0],"id":27,"left_children":[1,-1,-1],"loss_changes":[6.595271E2,0E0,0E0],"parents":[2147483647,0,0],"right_children":[2,-1,-1],"split_conditions":[5.7735026E-1,6.284181E-2,-3.1306606E-2],"split_indices":[15,0,0],"split_type":[0,0,0],"sum_hessian":[8.379728E2,2.7706552E2,5.609072E2],"tree_param":{"num_deleted":"0","num_feature":"16","num_nodes":"3","size_leaf_vector":"1"}},{"base_weights":[1.0277038E-3,-3.0827938E-2,1.7328659E-1,-2.9686332E-1,9.6336025E-1,-5.70286E-1,3.0694845E-1,6.679831E-1,1.1085972E0,-6.1177504E-1,-9.320555E-2,4.9227986E-1,-2.2678651E-1,-3.2713264E-2,9.7631377E-1,1.1592214E0,3.9449126E-1,-4.2528772E-1,-3.0958269E-2,-2.9525012E-2,5.8587562E-2,-9.5121294E-2,1.0405607E0,9.847134E-1,-3.0003984E-2,4.0066987E-1,1.1503539E0,1.203037E0,-6.842903E-2,-3.6146486E-1,9.3790394E-1,2.7075613E-2,-2.8371815E-2,-3.0570144E-2,3.0410537E-2,3.466125E-2,6.390043E-2,5.585249E-2,4.712149E-3,-2.7339865E-2,5.5463936E-2,3.2066453E-2,5.962792E-2,6.0455143E-2,1.7321618E-2,-2.5570188E-2,4.4593748E-2,-2.5224412E-2,6.8629556E-3,1.58457E-2,5.2887816E-2],"categories":[],"categories_nodes":[],"categories_segments":[],"categories_sizes":[],"default_left":[0,0,0,0,0,0,0,0,0,0,0,0,0,0,0,0,0,0,0,0,0,0,0,0,0,0,0,0,0,0,0,0,0,0,0,0,0,0,0,0,0,0,0,0,0,0,0,0,0,0,0],"id":28,"left_children":[1,-1,3,5,7,9,11,13,15,17,19,21,23,-1,25,27,29,31,-1,-1,-1,33,35,37,-1,39,41,43,45,47,49,-1,-1,-1,-1,-1,-1,-1,-1,-1,-1,-1,-1,-1,-1,-1,-1,-1,-1,-1,-1],"loss_changes":[8.861872E1,0E0,2.4222319E2,6.771597E1,9.693756E0,5.52359E0,1.2789124E1,3.435013E1,5.3824005E0,9.391022E-2,1.5623715E1,3.0838018E1,1.5839181E1,0E0,6.2970047E0,8.168457E0,5.3545885E0,2.1040258E0,0E0,0E0,0E0,1.7436487E1,3.1924057E0,8.7523365E-1,0E0,1.2150343E1,3.3641052E-1,3.3558655E-1,3.0622838E0,4.8494744E-1,2.1416235E-1,0E0,0E0,0E0,0E0,0E0,0E0,0E0,0E0,0E0,0E0,0E0,0E0,0E0,0E0,0E0,0E0,0E0,0E0,0E0,0E0],"parents":[2147483647,0,0,2,2,3,3,4,4,5,5,6,6,7,7,8,8,9,9,10,10,11,11,12,12,14,14,15,15,16,16,17,17,21,21,22,22,23,23,25,25,26,26,27,27,28,28,29,29,30,30],"right_children":[2,-1,4,6,8,10,12,14,16,18,20,22,24,-1,26,28,30,32,-1,-1,-1,34,36,38,-1,40,42,44,46,48,50,-1,-1,-1,-1,-1,-1,-1,-1,-1,-1,-1,-1,-1,-1,-1,-1,-1,-1,-1,-1],"split_conditions":[5.7735026E-1,-3.0827938E-2,-2.582988E-2,1.5892707E-2,-7.476156E-1,-2.1365352E-1,2.0798569E0,2.1938124E-1,1.3901479E0,-1.4262118E0,-3.6631754E-1,-7.4642056E-1,-7.4642056E-1,-3.2713264E-2,4.453281E-1,1.9577281E0,-2.6988563E-1,-8.221697E-2,-3.0958269E-2,-2.9525012E-2,5.8587562E-2,1.0144715E0,-4.8591873E-1,-1.538911E-1,-3.0003984E-2,-1.1173055E0,-1.4933105E0,1.2597331E0,1.1919084E0,2.4488398E-1,-2.3602645E-1,2.7075613E-2,-2.8371815E-2,-3.0570144E-2,3.0410537E-2,3.466125E-2,6.390043E-2,5.585249E-2,4.712149E-3,-2.7339865E-2,5.5463936E-2,3.2066453E-2,5.962792E-2,6.0455143E-2,1.7321618E-2,-2.5570188E-2,4.4593748E-2,-2.5224412E-2,6.8629556E-3,1.58457E-2,5.2887816E-2],"split_indices":[15,0,1,2,2,1,2,1,8,2,2,1,1,0,1,2,9,4,0,0,0,2,1,9,0,2,2,1,1,4,9,0,0,0,0,0,0,0,0,0,0,0,0,0,0,0,0,0,0,0,0],"split_type":[0,0,0,0,0,0,0,0,0,0,0,0,0,0,0,0,0,0,0,0,0,0,0,0,0,0,0,0,0,0,0,0,0,0,0,0,0,0,0,0,0,0,0,0,0,0,0,0,0,0,0],"sum_hessian":[8.3099786E2,1.8067142E2,6.503264E2,4.0810138E2,2.4222504E2,2.8093967E2,1.2716172E2,8.16888E1,1.6053624E2,2.5820285E2,2.2736816E1,9.444485E1,3.2716873E1,1.5234602E1,6.64542E1,1.4932686E2,1.1209387E1,1.207402E1,2.4612883E2,1.6703375E1,6.033442E0,4.5994793E1,4.8450054E1,7.3205547E0,2.5396318E1,1.6194035E1,5.0260162E1,1.442003E2,5.1265497E0,4.827937E0,6.3814497E0,1.1875582E0,1.0886462E1,2.6599852E1,1.9394941E1,2.1264338E1,2.7185715E1,6.151854E0,1.1687008E0,7.0268803E0,9.167155E0,5.088149E0,4.5172012E1,1.4277776E2,1.4225518E0,3.8281393E0,1.2984104E0,3.7429745E0,1.0849628E0,1.621935E0,4.759515E0],"tree_param":{"num_deleted":"0","num_feature":"16","num_nodes":"51","size_leaf_vector":"1"}},{"base_weights":[-8.207333E-5,8.10399E-1,-3.6741054E-1,1.1354201E0,-2.468603E-1,-4.714594E-1,4.3012807E-1,1.1984155E0,9.600829E-1,4.7754314E-2,-3.731346E-1,1.938618E-1,-5.921756E-1,8.465217E-1,-2.9658323E-2,2.4561325E-2,6.022733E-2,5.868907E-2,-2.7374176E-2,4.2501524E-2,-5.216043E-1,9.793725E-1,-3.031739E-2,-3.097772E-2,-3.6525705E-1,-2.7143208E-2,1.0956625E0,5.2845072E-2,-2.8241698E-2,-5.861201E-1,7.516243E-2,5.581487E-2,5.4202074E-1,-3.0276304E-2,9.486758E-1,4.3803654E-3,1.1235169E0,-1.7271219E-2,-3.0475402E-2,-2.3175089E-2,4.574708E-2,5.80939E-2,-2.5946463E-2,5.49178E-2,3.2207754E-3,5.76259E-2,2.6500061E-2],"categories":[],"categories_nodes":[],"categories_segments":[],"categories_sizes":[],"default_left":[0,0,0,0,0,0,0,0,0,0,0,0,0,0,0,0,0,0,0,0,0,0,0,0,0,0,0,0,0,0,0,0,0,0,0,0,0,0,0,0,0,0,0,0,0,0,0],"id":29,"left_children":[1,3,5,7,9,11,13,15,17,-1,19,21,23,25,-1,-1,-1,-1,-1,27,29,31,-1,-1,33,-1,35,-1,-1,37,39,-1,41,-1,43,-1,45,-1,-1,-1,-1,-1,-1,-1,-1,-1,-1],"loss_changes":[2.4718245E2,8.926033E1,4.761354E1,1.0390167E0,9.721968E0,4.0743988E1,2.8819477E1,2.3147583E-2,1.914286E1,0E0,3.5124288E0,4.990108E1,2.43544E0,1.7088543E1,0E0,0E0,0E0,0E0,0E0,1.0337744E1,1.6514206E0,1.788372E0,0E0,0E0,1.5905678E1,0E0,1.0453682E0,0E0,0E0,2.1915436E-3,2.6675153E0,0E0,8.148197E0,0E0,9.7448254E-1,0E0,7.001114E-2,0E0,0E0,0E0,0E0,0E0,0E0,0E0,0E0,0E0,0E0],"parents":[2147483647,0,0,1,1,2,2,3,3,4,4,5,5,6,6,7,7,8,8,10,10,11,11,12,12,13,13,19,19,20,20,21,21,24,24,26,26,29,29,30,30,32,32,34,34,36,36],"right_children":[2,4,6,8,10,12,14,16,18,-1,20,22,24,26,-1,-1,-1,-1,-1,28,30,32,-1,-1,34,-1,36,-1,-1,38,40,-1,42,-1,44,-1,46,-1,-1,-1,-1,-1,-1,-1,-1,-1,-1],"split_conditions":[-7.522427E-1,2.4936476E-4,2.0798569E0,-3.778611E-1,-1.9630877E0,-1.1173055E0,-2.582988E-2,-1.4933105E0,-1.0874001E0,4.7754314E-2,-1.2899824E0,-4.8591873E-1,1.6425322E0,5.7735026E-1,-2.9658323E-2,2.4561325E-2,6.022733E-2,5.868907E-2,-2.7374176E-2,1.430715E-1,7.4910897E-1,-5.209958E-1,-3.031739E-2,-3.097772E-2,1.223455E0,-2.7143208E-2,-7.4642056E-1,5.2845072E-2,-2.8241698E-2,-7.1849763E-1,-9.849817E-1,5.581487E-2,-1.4933105E0,-3.0276304E-2,-8.873164E-1,4.3803654E-3,-3.8121212E-2,-1.7271219E-2,-3.0475402E-2,-2.3175089E-2,4.574708E-2,5.80939E-2,-2.5946463E-2,5.49178E-2,3.2207754E-3,5.76259E-2,2.6500061E-2],"split_indices":[1,2,2,2,9,2,1,2,1,0,1,1,8,15,0,0,0,0,0,2,7,1,0,0,3,0,1,0,0,4,1,0,2,0,11,0,1,0,0,0,0,0,0,0,0,0,0],"split_type":[0,0,0,0,0,0,0,0,0,0,0,0,0,0,0,0,0,0,0,0,0,0,0,0,0,0,0,0,0,0,0,0,0,0,0,0,0,0,0,0,0,0,0,0,0,0,0],"sum_hessian":[8.2827136E2,2.5794034E2,5.7033105E2,1.9723326E2,6.0707085E1,5.0487292E2,6.54581E1,1.4080846E2,5.6424793E1,5.147437E0,5.5559647E1,7.744312E1,4.274298E2,4.6648777E1,1.8809324E1,1.9075212E0,1.3890094E2,4.961346E1,6.8113327E0,1.481086E1,4.0748787E1,3.8967506E1,3.8475613E1,3.7986676E2,4.756305E1,6.9137654E0,3.9735012E1,5.2694135E0,9.541446E0,3.6789368E1,3.9594207E0,2.8494219E1,1.0473288E1,4.0665924E1,6.897124E0,1.1798894E0,3.8555122E1,4.654728E0,3.213464E1,2.685142E0,1.2742786E0,6.550844E0,3.9224439E0,5.6915817E0,1.2055418E0,3.5860985E1,2.6941361E0],"tree_param":{"num_deleted":"0","num_feature":"16","num_nodes":"47","size_leaf_vector":"1"}},{"base_weights":[2.4137932E-3,2.644357E-1,-4.993296E-1,3.9139092E-1,-3.8938937E-1,1.7396337E-1,-5.7278585E-1,-2.837982E-1,6.238706E-1,4.7616673E-1,-5.2976966E-1,5.6071546E-2,-4.363206E-1,-6.1414707E-1,-7.328496E-2,-6.029818E-1,7.5462973E-1,6.29542E-2,7.828216E-1,1.0564225E0,-3.6884907E-1,-5.521746E-1,1.5954006E-1,1.702636E-1,-2.9117567E-2,6.4213364E-3,-3.0906979E-2,-2.827977E-2,4.368337E-1,6.5964013E-3,-3.066999E-2,-2.3624683E-2,9.1709876E-1,-3.034856E-2,9.220241E-1,9.757131E-1,1.9365616E-1,5.717599E-2,1.8750697E-2,5.027521E-3,-2.500069E-2,-3.0651143E-2,-3.7564468E-1,2.7672997E-2,-1.6640654E-2,4.32429E-2,-2.1189444E-2,5.3210765E-2,-2.2783647E-1,2.2253392E-2,5.7163086E-2,1.6969875E-2,5.7878792E-2,5.2405726E-2,5.903643E-3,4.4146027E-2,-3.1204233E-2,-2.2611018E-2,2.5255641E-2,1.4315638E-2,-2.4632206E-2],"categories":[],"categories_nodes":[],"categories_segments":[],"categories_sizes":[],"default_left":[0,0,0,0,0,0,0,0,0,0,0,0,0,0,0,0,0,0,0,0,0,0,0,0,0,0,0,0,0,0,0,0,0,0,0,0,0,0,0,0,0,0,0,0,0,0,0,0,0,0,0,0,0,0,0,0,0,0,0,0,0],"id":30,"left_children":[1,3,5,7,9,11,13,15,17,19,21,-1,23,25,27,29,31,33,35,37,39,41,43,45,-1,-1,-1,-1,47,-1,-1,-1,49,-1,51,53,55,-1,-1,-1,-1,-1,57,-1,-1,-1,-1,-1,59,-1,-1,-1,-1,-1,-1,-1,-1,-1,-1,-1,-1],"loss_changes":[1.0980844E2,4.56979E1,1.4271576E1,7.237881E1,1.1153845E1,1.7231293E1,5.2975235E0,3.973201E1,3.0485382E1,6.787036E0,1.2876663E0,0E0,1.722878E0,7.870102E-1,5.4985547E0,7.791519E-1,6.076376E0,4.4706356E1,3.012799E1,4.5612335E-2,4.2295033E-1,5.8018875E-1,8.089033E-1,2.1533844E0,0E0,0E0,0E0,0E0,4.760228E0,0E0,0E0,0E0,2.1958485E0,0E0,4.274147E0,1.2340088E1,3.834034E1,0E0,0E0,0E0,0E0,0E0,1.7070315E0,0E0,0E0,0E0,0E0,0E0,9.6942955E-1,0E0,0E0,0E0,0E0,0E0,0E0,0E0,0E0,0E0,0E0,0E0,0E0],"parents":[2147483647,0,0,1,1,2,2,3,3,4,4,5,5,6,6,7,7,8,8,9,9,10,10,12,12,13,13,14,14,15,15,16,16,17,17,18,18,19,19,20,20,21,21,22,22,23,23,28,28,32,32,34,34,35,35,36,36,42,42,48,48],"right_children":[2,4,6,8,10,12,14,16,18,20,22,-1,24,26,28,30,32,34,36,38,40,42,44,46,-1,-1,-1,-1,48,-1,-1,-1,50,-1,52,54,56,-1,-1,-1,-1,-1,58,-1,-1,-1,-1,-1,60,-1,-1,-1,-1,-1,-1,-1,-1,-1,-1,-1,-1],"split_conditions":[2.1938124E-1,7.8113616E-1,-1.1173055E0,-9.902832E-1,-1.2160637E0,4.453281E-1,2.0798569E0,2.4936476E-4,-7.5597155E-1,1.8970852E0,1.7169055E0,5.6071546E-2,7.079013E-1,-1.291578E0,5.7735026E-1,-1.1744261E0,-1.9630877E0,-5.209958E-1,-2.1365352E-1,6.2468046E-1,-1.6607044E0,8.651992E-1,4.14808E-3,-1.4933105E0,-2.9117567E-2,6.4213364E-3,-3.0906979E-2,-2.827977E-2,1.1919084E0,6.5964013E-3,-3.066999E-2,-2.3624683E-2,-1.2899824E0,-3.034856E-2,-4.8591873E-1,4.084431E-1,-3.6631754E-1,5.717599E-2,1.8750697E-2,5.027521E-3,-2.500069E-2,-3.0651143E-2,6.3417844E-2,2.7672997E-2,-1.6640654E-2,4.32429E-2,-2.1189444E-2,5.3210765E-2,-2.3602645E-1,2.2253392E-2,5.7163086E-2,1.6969875E-2,5.7878792E-2,5.2405726E-2,5.903643E-3,4.4146027E-2,-3.1204233E-2,-2.2611018E-2,2.5255641E-2,1.4315638E-2,-2.4632206E-2],"split_indices":[1,2,2,1,1,1,2,2,2,2,3,0,1,8,15,2,9,1,1,10,10,13,10,2,0,0,0,0,1,0,0,0,1,0,1,2,2,0,0,0,0,0,1,0,0,0,0,0,9,0,0,0,0,0,0,0,0,0,0,0,0],"split_type":[0,0,0,0,0,0,0,0,0,0,0,0,0,0,0,0,0,0,0,0,0,0,0,0,0,0,0,0,0,0,0,0,0,0,0,0,0,0,0,0,0,0,0,0,0,0,0,0,0,0,0,0,0,0,0,0,0,0,0,0,0],"sum_hessian":[8.332455E2,5.47698E2,2.855475E2,4.5897818E2,8.871981E1,2.7954147E1,2.5759335E2,1.1750078E2,3.4147742E2,1.2047209E1,7.66726E1,1.062353E1,1.7330616E1,2.376825E2,1.9910854E1,9.01963E1,2.7304478E1,7.5708496E1,2.6576892E2,6.9942284E0,5.0529804E0,7.445161E1,2.220995E0,3.3304813E0,1.4000135E1,1.1044025E0,2.365781E2,1.0076943E1,9.83391E0,1.097714E0,8.909859E1,2.9692936E0,2.4335184E1,4.270189E1,3.3006607E1,1.9972372E2,6.604519E1,5.6002383E0,1.3939902E0,1.154559E0,3.898421E0,5.352828E1,2.0923326E1,1.1648861E0,1.056109E0,1.3251692E0,2.0053122E0,4.749625E0,5.084285E0,8.8441725E0,1.5491012E1,1.0205249E1,2.2801357E1,1.8397092E2,1.5752813E1,3.579461E1,3.0250574E1,1.9697338E1,1.2259895E0,1.700803E0,3.3834817E0],"tree_param":{"num_deleted":"0","num_feature":"16","num_nodes":"61","size_leaf_vector":"1"}},{"base_weights":[-3.380258E-3,5.9455764E-2,-3.1024924E-2],"categories":[],"categories_nodes":[],"categories_segments":[],"categories_sizes":[],"default_left":[0,0,0],"id":31,"left_children":[1,-1,-1],"loss_changes":[6.1047473E2,0E0,0E0],"parents":[2147483647,0,0],"right_children":[2,-1,-1],"split_conditions":[5.7735026E-1,5.9455764E-2,-3.1024924E-2],"split_indices":[15,0,0],"split_type":[0,0,0],"sum_hessian":[8.2754736E2,2.818958E2,5.4565155E2],"tree_param":{"num_deleted":"0","num_feature":"16","num_nodes":"3","size_leaf_vector":"1"}},{"base_weights":[1.2331507E-3,-3.0542418E-2,1.6829737E-1,-2.9110682E-1,9.1849965E-1,-5.64353E-1,2.9693857E-1,6.3924825E-1,1.0547829E0,-6.061237E-1,-9.2016324E-2,4.7310033E-1,-2.2161455E-1,-3.2306E-2,9.3046176E-1,1.1019436E0,3.812656E-1,-4.165984E-1,-3.0683963E-2,-2.9256273E-2,5.5574704E-2,-3.2281953E-1,8.423824E-1,9.413094E-1,-2.9716983E-2,3.868595E-1,1.0918353E0,1.1427583E0,-6.609421E-2,-3.5545507E-1,8.980163E-1,2.6819114E-2,-2.8060986E-2,-3.038303E-2,2.6317982E-2,2.6870085E-2,6.094134E-2,5.3391933E-2,4.42102E-3,-2.7030194E-2,5.28119E-2,3.064701E-2,5.6567114E-2,5.7421606E-2,1.667524E-2,-2.5279004E-2,4.292118E-2,-2.4948671E-2,6.819531E-3,1.5324187E-2,5.0572217E-2],"categories":[],"categories_nodes":[],"categories_segments":[],"categories_sizes":[],"default_left":[0,0,0,0,0,0,0,0,0,0,0,0,0,0,0,0,0,0,0,0,0,0,0,0,0,0,0,0,0,0,0,0,0,0,0,0,0,0,0,0,0,0,0,0,0,0,0,0,0,0,0],"id":32,"left_children":[1,-1,3,5,7,9,11,13,15,17,19,21,23,-1,25,27,29,31,-1,-1,-1,33,35,37,-1,39,41,43,45,47,49,-1,-1,-1,-1,-1,-1,-1,-1,-1,-1,-1,-1,-1,-1,-1,-1,-1,-1,-1,-1],"loss_changes":[8.410253E1,0E0,2.229449E2,6.467719E1,8.673706E0,5.359108E0,1.1799755E1,3.1705963E1,4.7742004E0,1.05155945E-1,1.4583612E1,2.8452742E1,1.49260235E1,0E0,5.556652E0,7.336197E0,4.9753504E0,2.0615344E0,0E0,0E0,0E0,7.844673E0,6.8959274E0,8.154955E-1,0E0,1.1218517E1,2.905197E-1,2.9292297E-1,2.9074242E0,4.745413E-1,1.9134903E-1,0E0,0E0,0E0,0E0,0E0,0E0,0E0,0E0,0E0,0E0,0E0,0E0,0E0,0E0,0E0,0E0,0E0,0E0,0E0,0E0],"parents":[2147483647,0,0,2,2,3,3,4,4,5,5,6,6,7,7,8,8,9,9,10,10,11,11,12,12,14,14,15,15,16,16,17,17,21,21,22,22,23,23,25,25,26,26,27,27,28,28,29,29,30,30],"right_children":[2,-1,4,6,8,10,12,14,16,18,20,22,24,-1,26,28,30,32,-1,-1,-1,34,36,38,-1,40,42,44,46,48,50,-1,-1,-1,-1,-1,-1,-1,-1,-1,-1,-1,-1,-1,-1,-1,-1,-1,-1,-1,-1],"split_conditions":[5.7735026E-1,-3.0542418E-2,-2.582988E-2,1.5892707E-2,-7.476156E-1,-2.1365352E-1,2.0798569E0,2.1938124E-1,1.3901479E0,-1.4262118E0,-3.6631754E-1,-9.434165E-1,-7.4642056E-1,-3.2306E-2,4.453281E-1,1.9577281E0,-2.6988563E-1,-8.221697E-2,-3.0683963E-2,-2.9256273E-2,5.5574704E-2,1.226147E0,-4.8591873E-1,-1.538911E-1,-2.9716983E-2,-1.1173055E0,-1.4933105E0,1.2597331E0,1.1919084E0,2.4488398E-1,-2.3602645E-1,2.6819114E-2,-2.8060986E-2,-3.038303E-2,2.6317982E-2,2.6870085E-2,6.094134E-2,5.3391933E-2,4.42102E-3,-2.7030194E-2,5.28119E-2,3.064701E-2,5.6567114E-2,5.7421606E-2,1.667524E-2,-2.5279004E-2,4.292118E-2,-2.4948671E-2,6.819531E-3,1.5324187E-2,5.0572217E-2],"split_indices":[15,0,1,2,2,1,2,1,8,2,2,1,1,0,1,2,9,4,0,0,0,2,1,9,0,2,2,1,1,4,9,0,0,0,0,0,0,0,0,0,0,0,0,0,0,0,0,0,0,0,0],"split_type":[0,0,0,0,0,0,0,0,0,0,0,0,0,0,0,0,0,0,0,0,0,0,0,0,0,0,0,0,0,0,0,0,0,0,0,0,0,0,0,0,0,0,0,0,0,0,0,0,0,0,0],"sum_hessian":[8.2045764E2,1.7535272E2,6.451049E2,4.0047592E2,2.4462898E2,2.7345178E2,1.2702414E2,8.2097496E1,1.6253148E2,2.5097388E2,2.2477917E1,9.4879524E1,3.2144615E1,1.4939278E1,6.715822E1,1.5130103E2,1.1230455E1,1.1773833E1,2.3920004E2,1.6309368E1,6.1685486E0,3.0109604E1,6.476992E1,7.431725E0,2.471289E1,1.6150614E1,5.100761E1,1.4621355E2,5.0874877E0,4.758498E0,6.471957E0,1.1944091E0,1.0579424E1,2.2759706E1,7.349898E0,3.7122375E1,2.7647547E1,6.252167E0,1.1795579E0,6.8508015E0,9.299811E0,5.1458206E0,4.586179E1,1.4477934E2,1.4342047E0,3.7554233E0,1.3320646E0,3.6724129E0,1.0860856E0,1.6369896E0,4.834968E0],"tree_param":{"num_deleted":"0","num_feature":"16","num_nodes":"51","size_leaf_vector":"1"}},{"base_weights":[-8.831079E-5,7.766261E-1,-3.618446E-1,1.0813993E0,-2.4183296E-1,-4.6541443E-1,4.142839E-1,1.140672E0,9.1572934E-1,4.5698088E-2,-3.6706787E-1,1.8820356E-1,-5.864236E-1,8.08994E-1,-2.9375676E-2,2.3565369E-2,5.732246E-2,5.577433E-2,-2.7078545E-2,4.3585192E-2,-5.1528E-1,9.329233E-1,-3.003188E-2,-3.070399E-2,-3.5842893E-1,-2.682024E-2,1.0413239E0,5.0928116E-2,-2.7968029E-2,-5.806238E-1,7.929573E-2,5.3030014E-2,5.2165574E-1,-2.9982477E-2,9.08806E-1,4.227661E-3,1.0674987E0,-1.7009836E-2,-3.0212319E-2,-2.2909261E-2,4.4857994E-2,5.5817027E-2,-2.581133E-2,2.8399448E-3,5.2639406E-2,5.477318E-2,2.5148798E-2],"categories":[],"categories_nodes":[],"categories_segments":[],"categories_sizes":[],"default_left":[0,0,0,0,0,0,0,0,0,0,0,0,0,0,0,0,0,0,0,0,0,0,0,0,0,0,0,0,0,0,0,0,0,0,0,0,0,0,0,0,0,0,0,0,0,0,0],"id":33,"left_children":[1,3,5,7,9,11,13,15,17,-1,19,21,23,25,-1,-1,-1,-1,-1,27,29,31,-1,-1,33,-1,35,-1,-1,37,39,-1,41,-1,43,-1,45,-1,-1,-1,-1,-1,-1,-1,-1,-1,-1],"loss_changes":[2.3015805E2,8.105258E1,4.5114403E1,9.244385E-1,9.131181E0,3.9144516E1,2.6700813E1,1.5014648E-2,1.7461163E1,0E0,3.4027905E0,